tree
version=v3
num_class=3
num_tree_per_iteration=3
label_index=0
max_feature_idx=198
objective=multiclass num_class:3
feature_names=Column_0 Column_1 Column_2 Column_3 Column_4 Column_5 Column_6 Column_7 Column_8 Column_9 Column_10 Column_11 Column_12 Column_13 Column_14 Column_15 Column_16 Column_17 Column_18 Column_19 Column_20 Column_21 Column_22 Column_23 Column_24 Column_25 Column_26 Column_27 Column_28 Column_29 Column_30 Column_31 Column_32 Column_33 Column_34 Column_35 Column_36 Column_37 Column_38 Column_39 Column_40 Column_41 Column_42 Column_43 Column_44 Column_45 Column_46 Column_47 Column_48 Column_49 Column_50 Column_51 Column_52 Column_53 Column_54 Column_55 Column_56 Column_57 Column_58 Column_59 Column_60 Column_61 Column_62 Column_63 Column_64 Column_65 Column_66 Column_67 Column_68 Column_69 Column_70 Column_71 Column_72 Column_73 Column_74 Column_75 Column_76 Column_77 Column_78 Column_79 Column_80 Column_81 Column_82 Column_83 Column_84 Column_85 Column_86 Column_87 Column_88 Column_89 Column_90 Column_91 Column_92 Column_93 Column_94 Column_95 Column_96 Column_97 Column_98 Column_99 Column_100 Column_101 Column_102 Column_103 Column_104 Column_105 Column_106 Column_107 Column_108 Column_109 Column_110 Column_111 Column_112 Column_113 Column_114 Column_115 Column_116 Column_117 Column_118 Column_119 Column_120 Column_121 Column_122 Column_123 Column_124 Column_125 Column_126 Column_127 Column_128 Column_129 Column_130 Column_131 Column_132 Column_133 Column_134 Column_135 Column_136 Column_137 Column_138 Column_139 Column_140 Column_141 Column_142 Column_143 Column_144 Column_145 Column_146 Column_147 Column_148 Column_149 Column_150 Column_151 Column_152 Column_153 Column_154 Column_155 Column_156 Column_157 Column_158 Column_159 Column_160 Column_161 Column_162 Column_163 Column_164 Column_165 Column_166 Column_167 Column_168 Column_169 Column_170 Column_171 Column_172 Column_173 Column_174 Column_175 Column_176 Column_177 Column_178 Column_179 Column_180 Column_181 Column_182 Column_183 Column_184 Column_185 Column_186 Column_187 Column_188 Column_189 Column_190 Column_191 Column_192 Column_193 Column_194 Column_195 Column_196 Column_197 Column_198
feature_infos=[-1.1672899875298663:5.7922560507032426] [-1.2674221065496893:6.0950731189937892] [-2.3345960058040904:2.8818957981826054] [-2.3480496629776919:2.8329554384681326] [-4.2664695842041249:2.6824841686402223] [-3.983675104521156:2.8225597053757481] [-3.4464125108721495:2.6576520591851835] [-3.1896437604529226:2.4697608774538269] [-4.0217842870754845:2.73876983546926] [-3.3339017743992234:2.899141830037359] [-3.2135298301446444:2.6867710494035131] [-3.931643829801827:2.8186665836818783] [-2.9932921807392896:1.470845249272078] [-1.477640753995815:3.1912810909196199] [-0.3878905690220299:9.8680656057270539] none none [-0.19508673277707542:5.1259252013959076] [-0.10413058392157976:9.6033265380812125] [-0.1901698329432028:5.2584575824845254] none [-0.10413058392157976:9.6033265380812125] [-0.17760680832948836:5.6304147876180739] [-0.077195152964198779:12.954181209586764] [-0.15252355166954551:6.5563645027528583] [-0.079266819116553755:12.615619134780749] [-0.068298091059705843:14.641697659247974] [-0.068298091059705843:14.641697659247974] [-0.26815413757106549:3.7291984716625262] none [-0.11745833990557865:8.5136568489208244] none none [-0.14348601079588788:6.9693205243716969] [-0.099310476464725336:10.069431097284037] none [-0.098485131098692627:10.153817016275209] [-0.085187405461998197:11.738824472663353] [-0.095968164053898145:10.420122233852203] [-0.10094170857400764:9.9067076843347497] [-0.085187405461998197:11.738824472663353] [-0.23466479831361067:4.2613975644680222] [-0.087073922865762626:11.484494634997075] [-0.18328280460446089:5.4560492030776215] none [-0.1530722034181331:6.532864737488576] [-0.079266819116553755:12.615619134780749] [-0.1294876516468845:7.7227441171535096] none none [-0.093385920954703563:10.708252269472673] [-0.082278951857459204:12.153776602944689] none [-0.17567919268475349:5.6921937351707017] [-0.15846382194552627:6.3105886739483106] [-0.078237676477631649:12.781565672977298] [-0.088002464103492814:11.36331817736351] none none none [-0.18606408652269052:5.3744922982654675] [-0.059453379804515302:16.819901631968328] [-0.085187405461998197:11.738824472663353] [-0.14863145949328685:6.7280507330627843] none [-0.089831633635091987:11.131936040060598] none [-0.12226866425762371:8.1787104330588729] [-0.096814151657778097:10.329068456178117] none [-0.079266819116553755:12.615619134780749] [-0.11954226872132948:8.3652419407493959] [-0.12690712066988344:7.879778492502763] [-0.15632737546202627:6.3968322697447935] [-0.19990007493755466:5.0024993753123042] [-0.08892160479466002:11.245860916581799] [-0.12493900951088487:8.0039052967910624] none [-0.14579342473023812:6.8590198896164338] [-0.0706252959042349:14.15923271112322] [-0.11533884847506298:8.6701056341498557] [-0.090732824934425541:11.021369617034631] [-0.084228769727394154:11.872427951120422] [-0.088002464103492814:11.36331817736351] [-0.15793215777292458:6.3318326938697531] [-0.08028309562491695:12.455922286205867] [-0.1202293298886349:8.3174380238688208] none [-0.062107009404453697:16.101242188104621] [-0.10491328951380428:9.5316809208276894] [-0.21214583611396168:4.7137385221306651] [-0.086135676921410886:11.609591237233641] [-0.12755683125622935:7.8396428490078556] [-0.089831633635091987:11.131936040060598] [-0.075067725553257372:13.321304097465189] [-0.065890318019289212:15.176736583776281] [-0.17760680832948836:5.6304147876180739] [-0.078237676477631649:12.781565672977298] [-0.098485131098692627:10.153817016275209] none [-0.11172181370258295:8.9508034900160283] [-0.12226866425762371:8.1787104330588729] [-0.11885146087273414:8.4138637645421781] [-0.19286509413758304:5.184971414716629] [-0.11390511669004978:8.7792368688855884] none none [-0.089831633635091987:11.131936040060598] [-0.11954226872132948:8.3652419407493959] [-0.14290381294752777:6.9977139124145395] [-0.064653416836866956:15.467086643281247] [-0.17904055081670239:5.5853268739313551] none [-0.056677467902266063:17.643695757975426] [-0.14863145949328685:6.7280507330627843] [-0.13876553849435833:7.2064001685883721] none [-0.1202293298886349:8.3174380238688208] [-0.10874600007353909:9.1957405267665315] [-0.12361061392599969:8.0899201794973408] [-0.1722602406373886:5.8051701094799961] [-0.060794461718207696:16.448866750974194] [-0.11675588928431228:8.5648784496420518] [-0.11098498153542287:9.0102281062310396] [-0.12559825934966987:7.9618937808362888] [-0.082278951857459204:12.153776602944689] [-0.1405528442999868:7.1147617465902409] [-0.1049132895138043:9.5316809208276911] [-0.11098498153542287:9.0102281062310396] [-0.058081786955151565:17.217101133134214] none [-0.10334220652998193:9.6765884296255802] [-0.1102434659256059:9.0708323763588528] none none [-0.1301253059394992:7.6849002796192689] [-0.13756208742090037:7.2694447921561993] [-0.060794461718207696:16.448866750974194] [-0.10174790753207784:9.8282119431766457] [-0.060794461718207689:16.448866750974194] none [-0.064653416836866956:15.467086643281247] [-0.1657456594373026:6.0333405013135479] [-0.075067725553257372:13.321304097465189] [-0.081286988729217788:12.302091830848692] [-0.12755683125622935:7.8396428490078556] [-0.063392795488542014:15.774663229368795] [-0.11885146087273413:8.4138637645421781] [-0.072879652489444086:13.721250936876245] [-0.1215924663107283:8.2241937378300296] [-0.12091270835166862:8.270429251254134] none [-0.18328280460446089:5.4560492030776215] [-0.14521972663661756:6.8861168049317021] [-0.1236106139259997:8.0899201794973425] [-0.12690712066988344:7.879778492502763] [-0.1102434659256059:9.0708323763588528] [-0.10094170857400764:9.9067076843347497] [-0.097653080500529676:10.240332356894529] [-0.056677467902266063:17.643695757975426] [-0.11815684051733509:8.4633271812416773] [-0.082278951857459204:12.153776602944689] [-0.1215924663107283:8.2241937378300296] [-0.11462410798513054:8.7241682188682681] [-0.11098498153542287:9.0102281062310396] [-0.08892160479466002:11.245860916581799] [-0.1307600568858675:7.6475953270105936] [-0.14348601079588785:6.9693205243716951] [-0.12820345912831455:7.800101547955375] none [-0.077195152964198779:12.954181209586764] [-0.12690712066988344:7.879778492502763] [-0.1363488102003565:7.3341307381454914] [-0.10569044943833353:9.4615928431969003] [-0.18560305191035131:5.3878424395899094] [-0.14806783502717097:6.7536612513885741] [-0.12294136104057898:8.1339590804589506] [-0.14406604503121626:6.9412608625670256] [-1.0919469732309315:0.91579538614510536] [-0.38382046378519108:2.6053847940730428] [-0.11245405460403442:8.8925206256113363] [-0.53947136251285466:1.8536665140889139] [-0.15086671711718064:6.6283672045656266] [-0.992980130189278:1.0070694967575877] [-0.3393493885343849:2.9468153878776588] [-0.10094170857400764:9.9067076843347497] [-0.60855391501964673:1.6432397776419132] none none none none none none none none none none none none
tree_sizes=3351 3326 3383 3395 3368 3378 2338 3378 3378 3380 3372 3408 2110 3374 3390 3359 3384 3389 2541 3387 3389 2943 3391 3390 1901 3390 2673 2749 3370 3184 3359 3384 3390 2307 3365 3423 2310 3390 2328 3384 3364 2043 3357 2546 3376 2329 2039 2364 2327 3287 2872 2759 3399 2130 2657 2235 3071 3153 3401 3404 3352 3081 3190 3389 2868 1913 1929 3054 2239 3389 3415 3388 1939 3355 3343 3393 3382 3369 3412 2991 3403 2645 3379 3164 2993 3403 2222 3378 3385 1421 2634 3084 3394 3400 3365 2552 3382 3312 2872 3360 3190 3385 2475 3414 3396 3081 3385 3413 3061 2983 2898 2006 3355 3381 3403 3375 3401 3422 3378 3411 3384 3378 3390 2866 3394 3357 3370 2263 3419 3414 3404 3374 3375 3378 2910 2988 3422 3366 3376 3402 3398 2967 3383 3393 3391 3389 3381 1619 3374 3380 3417 3399 3374 2953 3389 2337 3385 3377 3370 2571 3378 3384 3424 3378 3399 3389 3394 3404 3399 3385 3386 3388 3410 3409 3402 3415 3374 3413 2797 3374 3361 3190 3105 3376 3378 3390 3361 3399 2469 3363 3351 3386 3392 3396 3381 3399 3389 3377 3400 3398 3380 3385 3389 3414 3425 3239 3400 3408 3425 3441 3417 3412 2766 3425 3410 3216 3410 3408 2820 3381 3408 3418 2357 3424 2361 2358 3411 2648 2882 3385 3405 2470 3428 3025 3392 2784 3095 3358 3396 3412 3395 3409 3454 2899 3399 2557 3463 3394 3208 3403 3389 1523 2884 3396 3296 3377 3414 2236 2788 2787 3099 3397 2897 3433 3381 3403 3423 3403 3394 3205 3391 3413 3439 3438 3429 3394 2923 3412 3439 3188 3422 2897 3391 3432 3418 3321 3427 3416 3408 3431 3423 3444 3451 3396 2476 3387 3415 3380 2379 3420 3395 3412 3326 3409 3409 2573 3204 3409 3397 3316 3401 3436 3422 3412 3404 3431 3393 3415 2989 3436 3416 3002 3421 3402 2137 3471 3450 3225 3430 3212 3405 3443 2131 3451 3454 3396 2809 2828 3454 3445 3421 3234 3417 3390 2692 3416 2585 1742 2070 3423 2999 3443 3443 3442 3438 3386 3348 1732 3395 3106 3437 3435 3409 2160 3420 2275 3402 3428 3425 3447 2784 3433 3411 3429 3395 3411 3442 3392 2779 1862 3020 3448 3022 3465 3425 2371 3432 3467 3435 2798 3404 3215 3421 3410 2808 1862 3411 3414 3421 3406 3446 3427 3311 2716 3402 3416 3457 3414 3411 3427 2909 3410 2815 3463 2047 3410 2052 3445 2467 3425 3414 3451 3427 3413 3440 3412 3375 3422 3449 3408 3447 2888 2811 1858 3022 3438 3328 3443 3408 3234 3401 2925 3432 3438 3422 3407 3402 1630 3437 3430 3434 3412 3019 3388 3425 3424 3412 3448 3459 2255 3220 3433 1312 3450 3452 2833 2810 3407 3423 3238 3416 3412 3446 3219 2162 3429 3439 2743 3418 3370 1630 3416 2898 3340 2680 3434 3440 3432 2182 2587 3040 3015 2474 3436 3145 3453 3418 3420 2182 3438 3433 3423 2059 3351 3431 3442 3220 3217 3433 3453 2917 3430 3421 3432 3223 2598 2185 2082 3463 3449 3466 3457 3448 3128 3435 3468 3488 3435 2583 3027 3462 2727 3238 3466 3407 3438 3016 2782 2591 2701 3354 1975 1964 3477 3431 3445 3440 3164 1855 2294 3428 1963 2281 3243 2190 1960 2943 3437 2091 2176 2085 2176 3443 3468 1435 3021 3431 2183 3135 3449 3453 3348 3473 1650 3447 3465 3046 2615 3434 1320 3352 2410 2061 3426 3125 2480 2057 3447 3447 3424 3437 2387 1850 3456 2077 2815 2826 2616 1745 3455 3444 3341 1665 1536 3442 3434 3430 3474 2712 3375 3455 3452 1758 3467 2719 3037 3431 3343 1332 3444 1860 3432 3453 3032 1868 3439 2212 2285 3444 2921 3440 3453 3342 3141 3465 3248 3405 3480 2730 3013 2646 3447 3454 2311 2280 3445 2292 3466 3269 1660 3461 2934 2075 3448 3130 3446 3161 1658 2729 1529 2161 3465 3473 2446 2186 3457 2300 3052 2652 1647 3452 3339 3146 1858 3463 2611 2624 2644 3445 3461 3480 3445 1861 3490 1853 3460 2825 2714 2385 1864 1738 2747 2839 2513 2508 2837 2508 2730 2722 2300 3475 2414 2839 2920 2205 3369 2408 2290 2401 3464 2180 2415 1760 2393 3149 3481 1872 2725 1748 2182 2404 1854 1547 1428 1759 2638 1664 3047 2924 3275 2184 3498 2187 3465 1220 3460 3478 1655 3486 2947 2304 3444 2182 3047 3476 3483 3476 2093 1548 2618 1321 3391 1987 2188 2937 2210 3453 3494 2297 3456 2748 2640 2417 3485 2613 3485 2980 2396 1564 3479 2631 2099 2720 3475 3488 2615 3360 3269 1854 2408 3463 2949 1872 1753 1645 3483 2293 1648 2614 3498 2068 1748 3487 2391 3507 3484 3472 1548 3062 3495 3185 2407 3505 2727 3280 1440 2717 2625 2076 2194 1755 3491 3069 2418 2323 2860 2719 3497 2963 3275 2428 1327 1873 3494 2719 2648 3505 1549 2079 2087 1987 2069 1780 2096 2412 1332 2738 2197 2299 1852 1564 2981 3487 3483 2290 2721 1535 3485 1971 3160 2417 2960 1462 2285 1542 1976 2621 1345 1877 2420 3494 2763 3510 3491 1231 2409 2626 2539 1875 2413 3061 2754 2208 3497 1555 3511 3296 1645 2734 2651 1321 2629 2205 2735 1345 3380 1334 1653 1979 1991 3178 3397 3509 3283 1882 2536 3483 2753 3528 1875

Tree=0
num_leaves=31
num_cat=0
split_feature=9 4 28 135 5 114 7 186 156 2 3 6 5 179 9 2 10 5 1 0 0 6 9 53 3 41 7 11 6 11
split_gain=29.0205 23.707 23.2288 17.9933 17.7761 26.9962 18.7152 17.1359 15.8245 21.0142 15.9901 14.2523 18.9121 17.4177 14.0343 20.4871 12.5474 12.2822 13.1082 10.865 9.73597 23.2999 14.6693 9.53776 9.496 9.32751 13.7975 8.22655 11.1882 11.177
threshold=-2.5103164332724677 -0.14052829345279383 1.0000000180025095e-35 1.0000000180025095e-35 0.48291648947368732 1.0000000180025095e-35 -1.2436923158873892 1.0000000180025095e-35 1.0000000180025095e-35 0.30786886574893707 -0.831995474720718 0.3504609865742277 0.34111993093416854 1.0000000180025095e-35 1.3736371640866645 1.5689012624852741 -0.41398767107975304 0.19932337239464964 -0.93630459640619945 -0.45919664061661386 1.4425397768075496 -1.7841449270618934 -0.45135308045557848 1.0000000180025095e-35 0.46136859625701582 1.0000000180025095e-35 1.8154453262243677 0.81103115898198275 0.53212957496879121 0.70434521853899368
decision_type=2 2 2 2 2 2 2 2 2 2 2 2 2 2 2 2 2 2 2 2 2 2 2 2 2 2 2 2 2 2
left_child=-1 3 8 4 5 17 -7 -4 10 -10 25 12 24 -14 23 -16 -6 20 -19 -20 21 -2 -22 -13 -12 26 -3 29 -29 -18
right_child=1 2 7 -5 16 6 -8 -9 9 -11 11 14 13 -15 15 -17 27 18 19 -21 22 -23 -24 -25 -26 -27 -28 28 -30 -31
leaf_value=-0.74841134905627027 -0.94777295178791299 -1.5116855244047014 -1.2289936368533061 -0.91582139525583828 -1.6239316149162417 -0.59254682328425867 -1.2795052887238654 -1.6484032881914341 -0.78737748049927303 -1.5090302348236868 -1.2363941811971322 -1.5009060333493964 -1.3770492400098517 -1.6154077736630847 -1.4088151175124972 -0.9957615747379408 -1.3882045989501171 -0.92592372562995018 -1.0097136422622897 -1.3668415642161873 -1.3518167061385609 -1.3764537029023169 -1.5884486478391466 -1.3232511597016707 -1.4026690290932771 -1.6835985036883399 -1.1653489554964014 -1.5138793534032606 -1.1162516298782177 -0.98532542822972791
leaf_weight=5.7742453515529624 11.82345476746559 176.25196525454521 9.8987063169479352 7.4240297377109519 35.195400238037109 6.8741016089916229 7.424029737710951 76.714973956346512 7.6989938020706159 6.8741016089916229 94.587638139724731 293.9365848004818 91.013105303049088 39.594825267791748 74.240297377109528 12.648346960544584 62.966770738363266 9.8987063169479352 9.3487781882286054 42.619429975748062 47.018855005502701 327.20723658800125 47.293819069862366 29.971083015203476 45.918998748064041 25.846622049808502 10.998562574386595 86.613680273294449 6.874101608991622 6.874101608991622
leaf_count=21 43 641 36 27 128 25 27 279 28 25 344 1069 331 144 270 46 229 36 34 155 171 1190 172 109 167 94 40 315 25 25
internal_value=-1.41983 -1.4221 -1.45202 -1.38044 -1.38531 -1.35564 -0.949237 -1.60047 -1.43788 -1.12778 -1.44293 -1.42051 -1.36713 -1.44931 -1.45575 -1.34869 -1.46146 -1.36737 -1.24233 -1.3026 -1.38522 -1.3615 -1.47048 -1.48447 -1.29073 -1.51466 -1.49134 -1.42645 -1.48464 -1.34855
internal_weight=0 1711.65 996.195 715.456 708.032 509.508 14.2981 86.6137 909.581 14.5731 895.008 681.911 271.115 130.608 410.796 86.8886 198.524 495.21 61.8669 51.9682 433.343 339.031 94.3127 323.908 140.507 213.097 187.251 163.329 93.4878 69.8409
internal_count=6246 6225 3623 2602 2575 1853 52 315 3308 53 3255 2480 986 475 1494 316 722 1801 225 189 1576 1233 343 1178 511 775 681 594 340 254
is_linear=0
shrinkage=1


Tree=1
num_leaves=31
num_cat=0
split_feature=10 7 7 9 7 7 103 10 6 12 6 5 10 7 9 28 4 4 9 7 13 9 8 7 5 5 7 7 9 8
split_gain=259.666 87.4469 82.1182 57.1606 31.6658 26.7963 21.1 20.386 19.8681 18.4929 16.1683 15.046 14.6684 18.7893 24.269 14.4753 14.0364 17.9499 15.5551 13.8339 13.5541 12.8959 23.7501 15.6452 12.6645 12.6085 12.1666 12.6477 11.6116 11.3162
threshold=0.58711443010484421 1.0000000180025095e-35 0.11592441394005827 -0.36712276147670525 -0.44491748711376328 1.7644596988558392 1.0000000180025095e-35 1.5970758419193942 1.3587216521640548 -0.50682273916012843 -0.23087849628837612 1.9008820748688757 -0.23680145848070927 0.74474715148525339 -0.31096921549079065 1.0000000180025095e-35 -2.1673064713657277 -1.7329968618129565 -0.17994427485698808 -1.2436923158873892 1.3377172705034146 -1.2468616485893766 -1.2172687032725824 -0.27496539588533236 0.19932337239464964 1.6172889577898382 -1.014256992729007 0.064938786571529475 -0.4981477021105078 0.67717228711083532
decision_type=2 2 2 2 2 2 2 2 2 2 2 2 2 2 2 2 2 2 2 2 2 2 2 2 2 2 2 2 2 2
left_child=1 3 6 21 9 7 16 8 15 -5 -8 25 -3 14 -14 20 -2 -18 -19 -11 -4 -1 23 28 -21 -9 -20 -28 -23 -16
right_child=2 12 5 4 -6 -7 10 11 -10 19 -12 -13 13 -15 29 -17 17 18 26 24 -22 22 -24 -25 -26 -27 27 -29 -30 -31
leaf_value=-1.4549659100184349 -0.63646371482086062 -1.4852279621799884 -1.1844367205227009 -1.3109023092110392 -1.335204971703196 -1.4993404892678708 -0.67579665950090961 -1.0421155593982163 -1.4307067887688174 -0.96487005224595823 -1.1550475873985937 -1.3749827119293287 -1.5016291072083086 -1.4601970000427535 -1.1300194082201318 -1.5112178295536303 -1.4855735721184677 -1.4011956928156746 -0.85951920038612784 -1.230389017942906 -0.74422140262922076 -1.1438489323429284 -1.3780954864480821 -0.73631526792589008 -1.0561134127928962 -0.65614212069992639 -1.065523794787272 -0.72906797778117016 -1.5036754008962294 -1.4073143727042645
leaf_weight=111.58593571186066 8.0989792048931104 333.85792055726051 136.48279771208763 47.693988651037216 112.18586009740829 28.496408313512802 29.09633269906044 36.895349711179733 38.695122867822647 49.193799614906311 8.0989792048931104 9.5987901687622053 34.495652168989182 143.68189033865929 55.493005663156509 11.698525518178938 7.7990170121192923 9.2988279759883863 41.394782602787018 79.489981085062027 6.5991682410240164 38.695122867822647 222.87190923094749 6.8991304337978354 71.091039687395096 9.5987901687622053 146.08158788084984 10.798638939857481 10.198714554309843 17.3978071808815
leaf_count=372 27 1113 455 159 374 95 97 123 129 164 27 32 115 479 185 39 26 31 138 265 22 129 743 23 237 32 487 36 34 58
internal_value=-1.28613 -1.35709 -1.11033 -1.28927 -1.20299 -1.22374 -0.989362 -1.19227 -1.23843 -1.14306 -0.78015 -1.03303 -1.44403 -1.38925 -1.29432 -1.19037 -1.02418 -1.03876 -1.02198 -1.10299 -1.16413 -1.36878 -1.33428 -1.15923 -1.14811 -0.962431 -1.00419 -1.04236 -1.2189 -1.19621
internal_weight=0 1334.83 538.732 749.905 359.655 278.065 260.667 249.569 193.476 247.469 37.1953 56.0929 584.926 251.068 107.386 154.78 223.472 215.373 207.574 199.775 143.082 390.251 278.665 55.793 150.581 46.4941 198.275 156.88 48.8938 72.8908
internal_count=6246 4450 1796 2500 1199 927 869 832 645 825 124 187 1950 837 358 516 745 718 692 666 477 1301 929 186 502 155 661 523 163 243
is_linear=0
shrinkage=1


Tree=2
num_leaves=31
num_cat=0
split_feature=10 7 7 11 4 7 178 3 8 11 2 2 10 0 3 9 6 8 2 9 3 1 33 43 9 8 4 3 4 43
split_gain=207.274 147.891 71.4514 49.3665 31.7022 28.5074 23.1725 24.2209 23.488 21.5801 34.2047 26.4211 21.2214 20.4848 19.1539 17.3785 17.7199 16.8043 15.655 15.283 14.9363 14.8542 17.7695 14.7736 14.6482 14.5065 13.6542 11.6797 15.1071 11.3303
threshold=0.47194339191546586 1.0000000180025095e-35 0.96568487008221304 -0.88624516624739724 -0.14052829345279383 1.8154453262243677 1.0000000180025095e-35 -0.94522773774406044 -1.0315391944114631 0.36488995349311765 -0.82515923744933939 -0.15091880019935838 -0.41398767107975304 2.0090144543381521 -0.62817740127870147 -0.31096921549079065 0.63204729858580067 -0.25147525719476133 -1.5298165365301466 1.3736371640866645 0.20848320883821764 0.11548043581429741 1.0000000180025095e-35 1.0000000180025095e-35 -2.3044200979907781 -1.4494305893489814 -2.0225366015148039 -1.296247753116422 -1.4434571221111088 1.0000000180025095e-35
decision_type=2 2 2 2 2 2 2 2 2 2 2 2 2 2 2 2 2 2 2 2 2 2 2 2 2 2 2 2 2 2
left_child=1 3 9 24 12 14 8 17 13 10 -2 -12 -3 21 -4 -6 -17 -8 26 -16 -13 22 -5 -18 -1 -22 -15 -26 -29 -11
right_child=2 4 5 6 15 -7 7 -9 -10 29 11 20 -14 18 19 16 23 -19 -20 -21 25 -23 -24 -25 27 -27 -28 28 -30 -31
leaf_value=-1.0115486978682207 -1.0008825597818387 -0.56897564118290789 -0.36838782713564266 -0.90069763362177657 -0.49289403567885504 -0.41240942444454143 -0.80362430807001717 -0.88006547057967832 -0.67338606317639726 -0.95597385884402775 -0.52810763665284433 -1.0445111071147652 -0.84367674496581846 -0.5334524155547028 -0.68501216753696892 -0.71550894689925426 -0.51008778342898509 -0.48912560792298582 -0.34260694821420729 -0.88932140889990152 -1.1160333158572677 -1.0659677697375161 -0.41946919593028781 -0.74085859050419178 -0.49704110928579237 -0.65709914309287731 -1.0796220095883571 -0.90776064399910061 -0.62076124671563815 -0.61537785465975092
leaf_weight=8.6137078404426557 59.921445846557617 46.064611494541168 11.235271096229551 34.829340398311615 328.81893408298492 27.713668704032898 37.450903654098511 289.86999428272247 210.09956949949265 399.22663295269012 40.821484982967377 20.972506046295166 56.176355481147766 8.2391988039016741 73.778280198574066 78.646897673606873 159.91535860300064 25.841123521327972 10.860762059688566 59.546936810016632 7.4901807308197013 35.95286750793457 8.6137078404426557 29.586213886737823 57.674391627311707 35.95286750793457 8.2391988039016741 18.725451827049255 139.31736159324646 8.9882168769836408
leaf_count=23 160 123 30 93 878 74 100 774 561 1066 109 56 150 22 197 210 427 69 29 159 20 96 23 79 154 96 22 50 372 24
internal_value=-0.730001 -0.668914 -0.860551 -0.749725 -0.565554 -0.691129 -0.790509 -0.843354 -0.731606 -0.911455 -0.819954 -0.716934 -0.71991 -0.846206 -0.744563 -0.539117 -0.595799 -0.67522 -0.622236 -0.776263 -0.836598 -0.923328 -0.805282 -0.546117 -0.627915 -0.736226 -0.806537 -0.612596 -0.654766 -0.948474
internal_weight=0 1593.54 745.647 894.328 699.208 172.274 669.997 353.162 316.835 573.373 165.158 105.237 102.241 106.735 144.56 596.967 268.148 63.292 27.3392 133.325 64.4156 79.3959 43.443 189.502 224.331 43.443 16.4784 215.717 158.043 408.215
internal_count=6246 4255 1991 2388 1867 460 1789 943 846 1531 441 281 273 285 386 1594 716 169 73 356 172 212 116 506 599 116 44 576 422 1090
is_linear=0
shrinkage=1


Tree=3
num_leaves=31
num_cat=0
split_feature=8 7 114 2 8 178 184 9 161 156 93 5 41 9 154 10 9 7 8 10 10 10 2 3 2 5 74 75 13 11
split_gain=19.437 15.5235 17.0417 15.1806 18.4231 14.2162 13.7514 12.7706 11.5308 10.9237 10.5179 10.5028 12.1558 21.5287 11.975 10.1138 9.62783 8.65187 8.62453 9.07701 7.61948 8.31398 11.5336 7.21378 10.4777 8.54044 7.16135 6.17738 6.12722 5.71411
threshold=-0.43720476605588071 -0.44491748711376328 1.0000000180025095e-35 0.96436613359760293 -1.737311328083716 1.0000000180025095e-35 1.0000000180025095e-35 -1.3872455135541644 1.0000000180025095e-35 1.0000000180025095e-35 1.0000000180025095e-35 2.0426786334083946 1.0000000180025095e-35 1.747994137326099 1.0000000180025095e-35 1.3578744549106849 -2.3044200979907781 0.23489087779996043 2.0237112263539507 -0.2988166328903748 1.6502317056991067 0.58711443010484421 -0.34355892512792435 1.558463411327623 1.374993768313757 0.48291648947368732 1.0000000180025095e-35 1.0000000180025095e-35 0.53358813732060428 1.8293969541196109
decision_type=2 2 2 2 2 2 2 2 2 2 2 2 2 2 2 2 2 2 2 2 2 2 2 2 2 2 2 2 2 2
left_child=1 2 6 4 -3 8 7 -1 16 26 20 12 14 -14 15 18 -2 -16 19 -7 21 22 -6 25 -25 -18 27 -9 -17 -13
right_child=5 3 -4 -5 10 11 -8 9 -10 -11 -12 29 13 -15 17 28 23 -19 -20 -21 -22 -23 -24 24 -26 -27 -28 -29 -30 -31
leaf_value=0.22487438424797701 0.35288210279737053 0.55273423909564146 0.31183079785008561 -0.08042712661727637 0.077190858196928711 -0.028538636530411252 -0.14197847175613026 -0.015629413607818967 0.33433867329359096 0.41963804762547524 0.45859760332788513 0.051008010282009825 -0.1520925287269117 0.47604128646969557 0.077585434106883636 -0.17625198816985241 -0.061164306729193645 0.57450460087636301 0.38199350024956269 0.05049262377138742 0.43441919499092818 -0.058367298602669912 0.37630124424204997 -0.10977897122399888 0.29467720921834284 -0.16935306854160498 0.23638904622728582 0.24987043616847118 0.011090262664828239 0.45822379206869718
leaf_weight=26.896583214402199 4.8181713521480551 10.786531597375868 16.96373875439167 24.532272532582283 50.209424421191208 222.87425293028355 50.068515285849571 276.63620311021805 6.4772499799728385 5.7235694825649253 8.6106895804405195 5.5854171216487867 73.951619029045105 5.2601446211338034 6.9710496515035612 39.9952103048563 330.42536008358002 5.758174255490303 5.917647957801818 316.57747077941895 6.1906074732542029 24.586827024817467 15.089100256562238 11.685295358300211 11.377057954668997 81.956792160868645 11.21065831184387 8.1185867339372617 25.878436073660851 6.9730627983808517
leaf_count=89 14 36 52 91 178 832 189 1004 23 18 30 20 301 19 25 145 1252 22 20 1136 20 90 51 44 38 322 39 29 93 24
internal_value=0 0.0480417 0.0176594 0.133894 0.179426 -0.0210292 0.00448044 0.0267972 -0.0630216 0.00913801 0.140962 0.00518091 0.000324343 -0.110381 0.0143781 0.00838057 -0.0688677 0.302371 0.0217922 0.0178409 0.112494 0.0903227 0.146309 -0.0735343 0.0897463 -0.0826657 0.0011995 -0.0080598 -0.102655 0.277113
internal_weight=0 535.623 395.618 140.005 115.473 1162.48 378.654 328.586 446.74 301.689 104.687 715.742 703.184 79.2118 623.972 611.243 440.263 12.7292 545.369 539.452 96.076 89.8854 65.2985 435.445 23.0624 412.382 295.965 284.755 65.8736 12.5585
internal_count=6246 1916 1420 496 405 4330 1368 1179 1693 1090 369 2637 2593 320 2273 2226 1670 47 1988 1968 339 319 229 1656 82 1574 1072 1033 238 44
is_linear=0
shrinkage=0.3


Tree=4
num_leaves=31
num_cat=0
split_feature=11 8 9 7 2 9 41 172 7 10 3 1 2 9 10 6 1 7 9 3 43 5 9 5 7 5 6 1 8 9
split_gain=130.406 56.5696 34.1984 33.1947 13.2897 18.2363 12.6245 12.4504 12.2808 16.6537 15.4321 13.0987 17.1328 12.0768 12.9679 10.425 16.912 15.6042 18.0068 11.7698 10.3179 13.4559 10.998 10.1735 19.5885 19.6518 10.834 10.1703 12.4508 17.4007
threshold=0.51037078136992176 1.0000000180025095e-35 -0.36712276147670525 0.96568487008221304 -0.95443090023035082 -0.26417459383586134 1.0000000180025095e-35 1.0000000180025095e-35 -0.67435281027214533 -0.12163042029133107 1.5257518686764351 -0.040339568959109555 -0.89359717656869841 2.2814528241922933 2.1817903434962385 -1.6478934857659708 -1.0142145987929028 -0.44491748711376328 1.5046621047204669 -0.3941640576971272 1.0000000180025095e-35 0.34111993093416854 0.81210170422751271 -0.22606630322390686 0.34535973709844031 -0.08426974468438804 -0.049209907893812639 -0.1961595737325165 -0.065745748333642065 0.52197504996695154
decision_type=2 2 2 2 2 2 2 2 2 2 2 2 2 2 2 2 2 2 2 2 2 2 2 2 2 2 2 2 2 2
left_child=1 2 -1 6 5 -3 13 8 9 11 -11 12 -4 14 15 16 -2 18 -17 -19 21 -5 -22 -6 25 -25 -27 28 29 -10
right_child=3 4 7 20 23 -7 -8 -9 27 10 -12 -13 -14 -15 -16 17 -18 19 -20 -21 22 -23 -24 24 -26 26 -28 -29 -30 -31
leaf_value=-0.066548927067011793 -0.21083579935297314 -0.18098177063997462 0.40196794933873742 -0.22348711096235099 -0.17708950253583777 0.27471392784530729 -0.097520989640544425 -0.23105377542914443 0.12804332413628947 0.25428951239091796 -0.17448080777437161 -0.066673157950648002 -0.015368170774126137 -0.1260071143026755 0.50183791821644341 0.19142069116362476 0.2913344362121964 -0.078803166391928053 0.42763905889156889 0.15259313560353813 0.4687064986083721 0.012707958464377814 -0.028449691504143827 0.38138799511221694 -0.15572419388365624 0.087200260298910079 -0.13951576342167712 -0.056422354811646612 0.42251452151193053 -0.2103995125335337
leaf_weight=348.08677840232849 15.765788406133654 14.828767433762552 16.059637129306793 28.922590762376785 280.9660070091486 16.924196988344193 16.919759631156921 12.344873011112211 60.178639262914658 86.396014660596848 8.278617322444914 49.163034051656723 19.729281306266785 12.310943782329558 10.67729815840721 106.39042744040489 9.780054569244383 21.893347829580307 39.949480772018433 205.26895745098591 7.7101857811212566 87.020035609602928 8.3327350020408613 11.734465926885603 162.4801471978426 35.025328904390335 41.383557632565498 84.10818512737751 9.0719998776912671 17.691582083702087
leaf_count=1243 49 55 48 107 1066 53 54 41 191 262 24 155 63 38 31 314 27 73 112 624 27 293 28 38 615 114 140 279 27 55
internal_value=0 -0.055619 0.000637109 0.116908 -0.126631 0.0619021 0.156574 0.065059 0.0754831 0.130268 0.216797 0.0338356 0.171904 0.16676 0.175557 0.166827 -0.0185833 0.179508 0.255906 0.130292 -0.015011 -0.0462123 0.210482 -0.137893 -0.0939503 0.0199215 -0.0355906 0.0179517 0.0899014 0.0511514
internal_weight=0 1274.45 711.109 570.942 563.342 31.753 438.956 363.022 350.677 179.627 94.6746 84.952 35.7889 422.036 409.725 399.048 25.5458 373.502 146.34 227.162 131.986 115.943 16.0429 531.59 250.623 88.1434 76.4089 171.05 86.9422 77.8702
internal_count=6246 4469 2388 1777 2081 108 1322 1145 1104 552 286 266 111 1268 1230 1199 76 1123 426 697 455 400 55 1973 907 292 254 552 273 246
is_linear=0
shrinkage=0.3


Tree=5
num_leaves=31
num_cat=0
split_feature=9 0 8 11 11 152 6 2 174 1 1 3 9 4 43 5 0 0 7 8 7 11 4 4 0 9 2 7 5 5
split_gain=99.3188 61.8657 57.1752 29.4952 23.4579 19.8061 19.0222 18.181 14.1885 13.6702 12.2277 18.1245 11.2369 16.2967 11.8922 11.1256 10.5972 11.9966 10.3124 10.1642 15.7278 14.2116 12.7627 10.1658 10.8168 12.8583 10.0888 9.98265 11.8467 9.344
threshold=-0.31096921549079065 -0.70197150241544326 -0.20504287997948156 0.51037078136992176 0.8983196557080656 1.0000000180025095e-35 -0.049209907893812639 -0.96963933114576395 1.0000000180025095e-35 0.38816544416775961 1.4399504763882567 0.98978582369928059 0.89633202320638594 -0.14052829345279383 1.0000000180025095e-35 -1.7858284471586139 2.2113268391705097 1.8067020695057938 -1.583596498344251 -0.47435066782810514 -0.78482166957062505 -0.41100779518317038 -0.28529816330371771 -0.14052829345279383 -0.33780920971719919 0.70915353658666869 0.37123732789649172 -0.10501330465690147 -0.50965942030294442 1.0501027236317628
decision_type=2 2 2 2 2 2 2 2 2 2 2 2 2 2 2 2 2 2 2 2 2 2 2 2 2 2 2 2 2 2
left_child=2 4 10 7 5 6 26 9 -5 -3 11 15 13 -8 -15 -1 17 -12 -17 23 -21 22 -22 24 -9 -26 -2 28 -13 -23
right_child=1 3 -4 8 -6 -7 12 19 -10 -11 16 27 -14 14 -16 18 -18 -19 -20 20 21 29 -24 -25 25 -27 -28 -29 -30 -31
leaf_value=0.15129928048405256 0.053994262803866475 -0.18388078395947266 0.14813743576267402 -0.17173463312644052 -0.051472370206949204 -0.25863306999726554 -0.28101867046270473 0.075719907234856929 0.16959805926813457 0.051767177555660154 0.068317655114294537 -0.061074191225786958 0.31990013818961016 0.14602139906155359 -0.069852131129032657 -0.25936621022025741 -0.22874031562964403 0.35423721433749533 -0.062616923067076516 0.23082988613656957 0.34341730633467255 -0.059889191628862304 0.015008520591392101 0.053760849794262398 -0.22234596300728712 0.17433577945067183 -0.37397699308458615 -0.21454115897262149 0.24639385109030904 0.2331033447770447
leaf_weight=19.37232694029808 9.1778249144554156 120.78695967793465 488.14925363659859 353.48662576079369 166.95449042320251 14.103881835937498 9.3705852627754194 17.982911735773087 11.311041802167891 27.132875889539719 76.002305448055267 15.873328745365141 24.539830714464188 209.88250029087067 25.789266854524612 27.084026515483856 8.6812677681446058 15.985057562589644 208.92418229579926 27.643260627985001 17.538983315229416 180.58959177136421 27.115345448255539 35.022214323282242 71.874612480401993 8.1925651431083661 10.780438750982283 7.3675493299961081 38.959808140993118 10.358200222253798
leaf_count=52 25 335 1325 988 459 38 26 49 31 73 205 43 67 569 69 77 24 43 565 75 47 490 73 95 198 23 29 20 105 28
internal_value=0 -0.0494377 0.0783934 -0.0951464 0.0388559 0.0885216 0.105432 -0.050904 -0.161151 -0.140656 -0.00300644 -0.0318863 0.126354 0.106972 0.122399 -0.0672559 0.0881014 0.118003 -0.0851956 -0.0174054 0.0167532 -0.00836445 0.143998 -0.0849785 -0.134534 -0.181757 -0.177174 0.113333 0.157387 -0.0439954
internal_weight=0 1379.63 906.399 909.035 470.599 303.644 289.54 544.238 364.798 147.92 418.25 317.581 269.582 245.042 235.672 255.381 100.669 91.9874 236.008 396.318 263.245 235.602 44.6543 133.072 98.0501 80.0672 19.9583 62.2007 54.8331 190.948
internal_count=6246 3787 2459 2505 1282 823 785 1486 1019 408 1134 862 731 664 638 694 272 248 642 1078 713 638 120 365 270 221 54 168 148 518
is_linear=0
shrinkage=0.3


Tree=6
num_leaves=21
num_cat=0
split_feature=156 9 6 2 2 7 2 93 181 5 1 111 1 10 179 14 11 13 9 12
split_gain=9.56932 9.0061 8.95409 11.098 9.4252 7.49121 7.4393 7.14391 8.67695 8.05294 10.4998 8.02979 11.2385 10.8787 7.79333 7.20105 4.72845 4.29125 3.53462 1.03146
threshold=1.0000000180025095e-35 -2.8378787848569726 -2.0112306625550977 -1.299155334313048 -1.0330077932933184 2.0448806493827503 -0.64265806646438206 1.0000000180025095e-35 1.0000000180025095e-35 0.34111993093416854 0.27130044058770442 1.0000000180025095e-35 -1.0531695999862545 -1.7694621974624376 1.0000000180025095e-35 -0.31265667824508925 -0.65347584164451045 0.71370193469838572 -0.22673889651191736 -0.66890920019696087
decision_type=2 2 2 2 2 2 2 2 2 2 2 2 2 2 2 2 2 2 2 2
left_child=1 -1 3 16 19 7 -7 8 9 10 -4 13 -13 -10 -11 -9 -3 18 -2 -5
right_child=17 2 5 4 -6 6 -8 15 11 14 -12 12 -14 -15 -16 -17 -18 -19 -20 -21
leaf_value=0.34668910039121198 0.27320276870136118 0.1527529397964176 0.05541251792497133 0.32980741895737553 0.0042381506725189177 -0.027406803746529689 0.42182669853962768 0.39525507208101635 0.38158923451233812 -0.013881014337664229 -0.015446251047696077 -0.25319465825643556 0.17280404857056242 -0.077674145085048302 -0.13216365844412503 -0.024152319755143734 -0.19758912121338754 0.40181561533052262 -0.0062442720432501252 0.48314056655382476
leaf_weight=6.7086913287639609 7.13644659519196 5.5974386036396018 397.18632751703262 8.4649341404438001 8.1397192031145114 6.063593789935112 7.3260275274515134 7.9310002028942108 4.721002221107482 443.98639316856861 357.70425091683865 7.0306506752967826 26.893199995160103 276.98306015133858 56.514347970485687 6.8810018151998502 9.110355541110037 6.4592541307210913 9.49192014336586 7.4001846760511389
leaf_count=18 22 19 1417 25 29 21 27 23 19 1633 1371 29 98 1115 248 23 35 21 32 21
internal_value=0 -0.000193932 -0.0016147 0.14095 0.266681 -0.00506579 0.218388 -0.00695247 -0.00890761 0.00227163 0.0218362 -0.0533724 0.0845167 -0.0699775 -0.027237 0.200417 -0.0642572 0.194297 0.113687 0.401329
internal_weight=0 1644.64 1637.93 38.7126 24.0048 1599.22 13.3896 1585.83 1571.02 1255.39 754.891 315.628 33.9239 281.704 500.501 14.812 14.7078 23.0876 16.6284 15.8651
internal_count=6246 6171 6153 129 75 6024 48 5976 5930 4669 2788 1261 127 1134 1881 46 54 75 54 46
is_linear=0
shrinkage=0.3


Tree=7
num_leaves=31
num_cat=0
split_feature=9 7 10 7 11 11 5 4 7 5 3 119 47 8 3 10 4 10 7 7 7 0 10 7 12 5 4 10 28 28
split_gain=67.1889 35.3608 19.2079 17.4576 15.6428 14.2302 21.8392 13.8953 13.319 12.9737 11.687 11.1999 11.1376 9.58204 12.1315 10.0512 9.79385 9.01593 11.4956 11.5384 8.83975 8.04428 7.90125 7.76703 7.75387 11.4678 9.48181 8.38993 14.6129 7.84651
threshold=-0.17994427485698808 0.79573277885378213 0.82631581711355351 1.0000000180025095e-35 0.51037078136992176 -0.21703335801409843 -1.0768456544610197 -0.71960777285648936 -0.67435281027214533 -0.93504909592150087 1.5257518686764351 1.0000000180025095e-35 1.0000000180025095e-35 1.3365120435678086 0.15186707732654639 1.9514482671174818 1.1624005352055213 0.5339585663251315 0.45582859639692014 0.23489087779996043 -0.10501330465690147 -1.0661337951136871 -0.65318905808846239 -0.78482166957062505 -0.41865901843379677 1.3336958407108004 -0.57483790300556536 1.8274179182981507 1.0000000180025095e-35 1.0000000180025095e-35
decision_type=2 2 2 2 2 2 2 2 2 2 2 2 2 2 2 2 2 2 2 2 2 2 2 2 2 2 2 2 2 2
left_child=3 4 11 5 8 9 -7 22 10 -1 23 -3 17 14 -4 -16 21 -10 19 -19 -11 -15 -8 -2 25 27 -26 28 -6 -29
right_child=1 2 13 -5 24 6 7 -9 12 20 -12 -13 -14 16 15 -17 -18 18 -20 -21 -22 -23 -24 -25 26 -27 -28 29 -30 -31
leaf_value=-0.15858833621003784 0.097813119162431586 -0.14769374222740908 0.34454729056353295 -0.13571309286974392 0.021364981492811446 0.41684180159422957 -0.01285125848761844 -0.073748219795702105 -0.058665037598833437 -0.043156335612886329 -0.18443482052209623 0.21295837806873516 0.35740147962040475 -0.17188149818828974 -0.0054368552659728869 0.3215242368943747 -0.17937401676172252 0.079376648214123102 0.32786638514123334 -0.2078236865256512 0.22445003763517976 0.26265062749323986 0.30063018231763455 0.29756055594485148 0.22542340504218561 0.24478169120440041 0.1072537585310166 0.011893699440459518 -0.32795764253758974 0.42136062808368235
leaf_weight=101.54879097640514 126.28465509414673 133.89162164926529 14.36509884893894 270.74500235915184 40.065792471170425 13.251182243227957 12.159651875495912 63.836583241820335 168.33278971910477 205.38703867793083 11.831444725394247 8.2257101833820325 7.3019114136695853 5.961603149771693 58.991304755210876 9.879030913114546 29.786925777792931 56.690637081861496 12.417853400111197 16.183901980519295 11.744640439748762 10.745326474308966 17.871942654252052 20.342209935188293 84.206391751766205 19.517702668905258 222.81667463481426 11.410960406064989 14.743703752756117 6.6762049198150626
leaf_count=398 372 555 44 1209 117 43 41 222 575 755 40 33 23 22 189 28 104 167 40 57 41 32 59 59 235 54 637 35 42 18
internal_value=0 0.0431195 -0.0506299 -0.0761521 0.074244 -0.0382803 0.0563147 0.00541977 0.033777 -0.0700768 0.102382 -0.126819 -0.00788582 0.0328349 0.0937711 0.0414637 -0.0762557 -0.0184025 0.0610595 0.0155955 -0.0286815 0.107595 0.173703 0.125525 0.116732 0.0405465 0.139664 -0.0141364 -0.0726025 0.163033
internal_weight=0 1090.67 271.847 696.545 818.823 425.8 107.119 93.8682 419.385 318.68 158.458 142.117 260.927 129.729 83.2354 68.8703 46.4939 253.625 85.2924 72.8745 217.132 16.7069 30.0316 146.627 399.437 92.4144 307.023 72.8967 54.8095 18.0872
internal_count=6246 3478 1007 2768 2471 1559 365 322 1333 1194 471 588 862 419 261 217 158 839 264 224 796 54 100 431 1138 266 872 212 159 53
is_linear=0
shrinkage=0.3


Tree=8
num_leaves=31
num_cat=0
split_feature=10 7 0 9 6 53 178 0 6 3 10 120 10 1 2 7 6 3 10 5 9 2 3 11 12 10 2 11 41 11
split_gain=55.0313 35.7637 25.8522 15.5981 13.3952 15.3117 13.1355 14.3027 11.5 11.3313 11.2849 11.0065 13.7117 15.1388 14.5399 9.21222 8.89506 8.55317 8.13568 8.10789 13.2146 8.77748 7.96857 14.4273 7.64786 7.64542 7.29436 8.93023 9.33613 8.68836
threshold=-0.35197249667008745 1.0000000180025095e-35 -0.29734673275072759 1.3736371640866645 1.3587216521640548 1.0000000180025095e-35 1.0000000180025095e-35 2.6968765627681686 0.21420954527830502 -0.75147475434856326 1.1806882423116412 1.0000000180025095e-35 0.47194339191546586 -0.85839459401949603 1.2381178900750391 -1.6940653576427309 0.45037871019123704 -0.40674542025527632 -1.8934925462817687 -2.069421564237651 -1.1626313296105033 -0.80995080653392637 1.4100033331414628 1.4802429672152819 -0.23554518000980115 -0.2988166328903748 1.7970277262164707 -0.071552530137294429 1.0000000180025095e-35 0.17091551632404559
decision_type=2 2 2 2 2 2 2 2 2 2 2 2 2 2 2 2 2 2 2 2 2 2 2 2 2 2 2 2 2 2
left_child=2 6 26 4 5 19 7 11 25 15 16 12 13 -2 -15 -4 -10 -11 -17 -3 -21 -22 23 -14 -19 -8 27 28 -1 -29
right_child=1 3 9 -5 -6 -7 8 -9 10 17 -12 -13 22 14 -16 18 -18 24 -20 20 21 -23 -24 -25 -26 -27 -28 29 -30 -31
leaf_value=0.13345863642174205 0.31829546070597919 0.31837380905119861 -0.2317142913360962 -0.078988711855078442 0.12237611094124701 -0.28008885259156596 0.13435536893030142 0.31084166296814086 0.25231535860230364 -0.1252433439640539 -0.19925194989252365 -0.32559190119510717 -0.11844869630683494 -0.036222981306939961 0.33789380610657527 0.2682340877470033 -0.041521227457929889 0.13009653557066209 0.060858557177746936 -0.38244124681974073 -0.1064481587360538 0.035903385030095512 -0.21441194300912275 0.17252128927934648 -0.024457804913887264 -0.16357100921304857 -0.077062295781464688 -0.10909424166685637 0.30438342479632396 0.13141266650698069
leaf_weight=257.63827860355377 13.479388952255247 8.0382083058357221 8.8954078257083875 139.50019505620003 119.18963968753815 15.872827500104902 7.9899090230464926 9.8850193619728071 16.673408418893814 60.891736179590225 18.13672149181366 13.031910210847853 82.395884454250336 149.38565325737 9.9737141430377942 18.785301744937897 20.888007253408432 35.226494938135147 181.83815914392471 7.4263113737106314 43.457812279462814 378.69561615586281 46.410047441720963 18.844206064939499 158.32017683982849 260.58508333563805 15.76481121778488 25.17556968331337 32.374758064746857 29.195155829191208
leaf_count=725 37 22 28 398 335 44 22 27 46 171 56 36 251 413 27 52 59 98 506 21 125 1058 142 57 434 763 45 70 96 82
internal_value=0 -0.0357969 0.062179 0.0109673 0.0328798 0.0093578 -0.0856781 -0.0447885 -0.12898 0.0153645 -0.00492145 -0.0553288 -0.0443392 0.0130138 -0.0128084 0.0670301 0.088912 -0.0271799 0.0802761 0.0198563 0.0142705 0.0212493 -0.111477 -0.0642893 0.00367188 -0.154708 0.122487 0.131622 0.152539 0.0200495
internal_weight=0 1379.86 824.106 712.181 572.68 453.491 667.679 343.406 324.273 463.957 55.6981 333.521 320.489 172.839 159.359 209.519 37.5614 254.438 200.623 437.618 429.58 422.153 147.65 101.24 193.547 268.575 360.149 344.384 290.013 54.3707
internal_count=6246 3939 2307 2003 1605 1270 1936 990 946 1289 161 963 927 477 440 586 105 703 558 1226 1204 1183 450 308 532 785 1018 973 821 152
is_linear=0
shrinkage=0.3


Tree=9
num_leaves=31
num_cat=0
split_feature=28 7 0 186 111 6 53 6 135 7 103 7 5 10 8 5 4 9 9 152 8 9 5 0 3 5 1 1 8 10
split_gain=6.99245 15.8348 20.7894 12.0368 11.7797 6.1913 6.18495 7.07421 9.3609 8.26536 6.62478 9.17775 6.40828 9.52062 6.39748 11.3889 7.73718 6.27353 6.01199 5.99526 5.95249 5.85675 5.78085 5.69536 5.34847 5.45125 3.74579 3.40899 3.31967 2.76038
threshold=1.0000000180025095e-35 -0.33444862781528345 0.22866546781340266 1.0000000180025095e-35 1.0000000180025095e-35 2.1943971587790476 1.0000000180025095e-35 0.63204729858580067 1.0000000180025095e-35 2.0448806493827503 1.0000000180025095e-35 1.6454932349959368 0.34111993093416854 -0.47600284548941857 0.45429687647749156 0.19932337239464964 -1.4434571221111088 1.4204317857415936 -1.9768577464062733 1.0000000180025095e-35 -0.25147525719476133 0.52197504996695154 -2.069421564237651 -0.90428388724780107 -0.31867588234823224 -0.50965942030294442 -0.35197957850592343 -1.0142145987929028 -0.065745748333642065 0.29475717931642204
decision_type=2 2 2 2 2 2 2 2 2 2 2 2 2 2 2 2 2 2 2 2 2 2 2 2 2 2 2 2 2 2
left_child=5 2 -2 -3 18 6 7 8 12 10 19 23 14 28 16 -16 -1 21 -5 22 -15 24 -9 -12 25 -8 -26 -10 -14 -21
right_child=1 3 -4 4 -6 -7 17 9 27 -11 11 -13 13 20 15 -17 -18 -19 -20 29 -22 -23 -24 -25 26 -27 -28 -29 -30 -31
leaf_value=0.10263047375982901 0.44362176651723023 0.16825113200149186 -0.25002994742131546 0.10853330392392375 0.26406137392738721 -0.17726406138507403 -0.20508236193543936 0.26682381700012608 0.42164366627513322 0.19936322222702271 -0.25840656587533256 0.38849785252806762 -0.18245231905226983 0.041495629184178325 0.18801286762455946 -0.26064163210000979 0.011901341566402759 0.36253015696875085 -0.24071881126262643 0.027384716501382696 -0.043689442305628427 -0.13668342974035508 -0.057145129234886224 0.15250389494393496 0.14016994025961804 0.16671626483018473 0.45178928128275092 0.12947073495991493 -0.0013730088650879047 0.338763825634468
leaf_weight=98.751642525196075 10.617448449134828 10.413363963365553 6.1360254585742942 4.8058940768241873 5.0150471627712241 15.894994243979452 6.2280975580215427 5.0314393341541281 6.4432474374771109 13.936605572700499 5.4346960186958322 7.7114777266979209 37.622401207685471 164.58077612519264 44.094772055745125 5.7569869458675376 589.98024581372738 7.8935051262378684 57.620552241802216 5.2113562226295453 133.88372305035591 9.4152559340000135 335.47611458599567 6.8774535357952127 8.688249319791792 8.2511125057935715 5.7820599675178554 8.1278260946273786 12.023699179291723 5.0407425761222839
leaf_count=339 36 39 27 18 18 75 26 19 22 46 21 24 159 625 162 22 2112 26 281 20 516 36 1374 24 30 31 20 25 53 20
internal_value=0 -0.0750089 0.189569 -0.131943 -0.178295 0.00900506 0.0109374 0.00757446 0.0198088 -0.0274464 -0.0359715 0.131863 0.016606 -0.0169507 0.032422 0.136201 0.0249103 0.118966 -0.213832 -0.0455525 0.00328373 0.0688526 -0.0523581 -0.0288758 0.135699 0.00679054 0.264687 0.258668 -0.138597 0.180483
internal_weight=0 94.6083 16.7535 77.8549 67.4415 1548.14 1532.24 1485.99 1101.27 384.72 370.783 20.0236 1086.69 348.111 738.584 49.8518 688.732 46.2583 62.4264 350.76 298.464 38.3648 340.508 12.3121 28.9495 14.4792 14.4703 14.5711 49.6461 10.2521
internal_count=6246 419 63 356 317 5827 5752 5583 4035 1548 1502 69 3988 1353 2635 184 2451 169 299 1433 1141 143 1393 45 107 57 50 47 212 40
is_linear=0
shrinkage=0.3


Tree=10
num_leaves=31
num_cat=0
split_feature=9 7 11 7 11 6 7 1 3 8 54 3 8 6 4 11 1 10 12 1 5 14 5 7 11 10 124 5 2 183
split_gain=36.3913 18.9972 12.1279 11.8225 12.5443 15.751 13.209 16.699 27.9148 8.8979 8.89054 8.67046 8.36454 7.91739 7.79196 12.4044 12.0406 9.77049 8.8101 12.5627 9.53175 9.21667 7.37293 7.34373 8.09623 11.7061 11.0023 7.13434 8.42184 7.0704
threshold=-0.17994427485698808 0.79573277885378213 0.51037078136992176 -0.2239797685168036 -0.21703335801409843 -0.512464808299949 -0.39393185974523454 0.81667045729462884 0.97720446114113158 -0.84580968555034375 1.0000000180025095e-35 -0.3941640576971272 -2.1923486247934583 0.71379816336335478 -0.57483790300556536 -0.30432185474018136 0.42712044536111138 0.17958614112704388 -0.21299901066982704 -0.70257458924608907 0.90830616509224382 -0.076960454575345935 -0.08426974468438804 1.8154453262243677 1.0922940928771376 1.0035020297125974 1.0000000180025095e-35 -1.0768456544610197 1.7704129721144979 1.0000000180025095e-35
decision_type=2 2 2 2 2 2 2 2 2 2 2 2 2 2 2 2 2 2 2 2 2 2 2 2 2 2 2 2 2 2
left_child=3 11 -3 4 6 -6 12 29 -9 -7 27 -2 -1 -4 18 -16 17 -17 19 20 -13 -21 -19 24 25 -15 -26 -5 -29 -8
right_child=1 2 13 10 5 9 7 8 -10 -11 -12 14 -14 23 15 16 -18 22 -20 21 -22 -23 -24 -25 26 -27 -28 28 -30 -31
leaf_value=0.21202139647741319 0.0044859725202892652 -0.12524526852421511 -0.14977429143569806 -0.19337547896797547 0.16334810101320132 0.26947005914020611 -0.17956391824139248 0.036343833318282261 0.7542372334893207 -0.15347003198746509 0.23050044786505788 -0.12418844341453836 -0.10285620888877385 0.045481869540003821 -0.16218614867227801 -0.051168059048531285 0.38775776498254805 -0.12014586557344187 0.16983913433451961 0.37338030069933081 0.17156948849034748 -0.0025713099865841472 0.088326662701272388 -0.17417240960275648 -0.030118466581956511 0.3907293386442956 0.3066676078410831 -0.095668848752848146 0.26643243850650916 0.11462187140131903
leaf_weight=7.8862768262624732 244.94451278448105 97.15855385363102 23.995521351695061 74.793584369122982 59.646170616149902 5.2677411735057822 18.92008675634861 14.526042208075525 7.3370468467473975 29.81797930598259 6.9076712429523459 37.147201836109161 204.02074031531811 23.36367592215538 23.958882719278336 67.222629562020302 9.8574079871177656 16.208809852600098 122.32709683477879 14.106090009212496 13.325055569410322 10.050252631306646 263.07518164813519 13.351566091179846 75.297162622213364 14.217486575245855 9.8749527782201749 200.2977886646986 5.9526184052228919 12.026215806603433
leaf_count=26 770 461 77 386 197 15 75 61 26 105 21 113 811 96 90 213 31 56 343 39 38 31 747 64 238 42 29 968 30 47
internal_value=0 0.0295188 -0.0416302 -0.0604429 -0.0241576 0.069527 -0.0576837 0.0765566 0.277262 -0.0899702 -0.105738 0.05178 -0.0911378 0.00911253 0.0718473 0.0467654 0.0608136 0.0515127 0.120281 0.0390469 -0.0461061 0.216966 0.0762275 0.0371246 0.0601068 0.176094 0.0089289 -0.114002 -0.0852182 -0.0652387
internal_weight=0 1079.48 257.259 647.4 359.448 94.7319 264.716 52.8094 21.8631 35.0857 287.952 822.223 211.907 160.1 577.279 380.323 356.364 346.507 196.956 74.6286 50.4723 24.1563 279.284 136.105 122.753 37.5812 85.1721 281.044 206.25 30.9463
internal_count=6246 3478 1007 2768 1363 317 1046 209 87 120 1405 2471 837 546 1701 1137 1047 1016 564 221 151 70 803 469 405 138 267 1384 998 122
is_linear=0
shrinkage=0.3


Tree=11
num_leaves=31
num_cat=0
split_feature=10 7 172 10 7 8 6 0 2 54 2 10 10 2 0 2 120 178 4 0 12 152 11 41 4 28 4 0 0 5
split_gain=31.6642 22.8223 15.4134 14.3584 18.7638 14.7284 13.8824 9.54337 9.84788 10.4735 11.0138 9.39116 12.1683 9.45746 10.6911 9.71327 9.00456 11.3469 9.83298 8.77177 8.55084 11.3475 11.7355 9.97243 10.1543 8.27711 8.25946 8.71996 9.48948 9.73357
threshold=-0.59117388367879675 -0.2239797685168036 1.0000000180025095e-35 0.47194339191546586 1.8154453262243677 -0.52078304504338491 -0.92121913218771689 2.6968765627681686 -1.299155334313048 1.0000000180025095e-35 -1.1825573639615474 1.8894330927078162 1.774262054518438 -0.20414830840330425 -0.37827168668367078 0.37123732789649172 1.0000000180025095e-35 1.0000000180025095e-35 -0.43006803315464154 2.6968765627681686 -0.11160273819268864 1.0000000180025095e-35 -0.4982962919092534 1.0000000180025095e-35 1.7414800146092171 1.0000000180025095e-35 -0.14052829345279383 0.51190280657870368 -0.45919664061661386 -1.5022353300795761
decision_type=2 2 2 2 2 2 2 2 2 2 2 2 2 2 2 2 2 2 2 2 2 2 2 2 2 2 2 2 2 2
left_child=6 2 16 5 11 -3 7 8 -1 10 -10 12 13 14 -5 -15 17 19 -19 -2 21 25 -23 24 -22 -7 27 28 -8 -30
right_child=1 3 -4 4 -6 20 26 -9 9 -11 -12 -13 -14 15 -16 -17 -18 18 -20 -21 23 22 -24 -25 -26 -27 -28 -29 29 -31
leaf_value=0.16282211836092977 -0.036224180417642061 -0.14272204991468168 0.21212005018882693 0.1715652130734836 0.21919960240426947 0.1151327163468347 0.16282301808572841 -0.31766331658651453 -0.32867887884228231 -0.31717351413986605 0.02277515000145831 -0.18728504507524679 0.27496107933381053 -0.15418298919772047 -0.038903325243428162 -0.029660886780094851 -0.27039265259072665 -0.16629647973188882 -0.056581392761105305 0.25235249083425765 -0.0079221919775240984 0.16543678112471194 -0.24401759469143341 0.166193957478322 0.23858661124033395 0.30301182493940299 0.10886173467874122 0.12404373445874542 -0.26573596510293579 -0.015254178266542909
leaf_weight=24.68119615316391 286.68758903443813 34.98534220457077 17.317768901586533 34.188536733388901 25.040515959262848 81.065568834543228 20.952769309282303 9.5681076645851117 8.9455953240394575 11.574878513813017 77.974385917186737 39.545655325055122 11.174626737833021 87.733685210347176 59.56807479262352 157.75182396173477 20.491404294967651 142.85273978114128 151.47262355685234 9.8041699528694135 232.80417686700821 11.522842317819597 13.898786723613737 41.904203444719315 16.077980220317841 28.531697571277618 319.05357548594475 56.372359782457352 17.023705631494522 77.64597287774086
leaf_count=72 860 99 49 99 74 234 59 29 26 35 225 125 32 250 180 452 58 453 461 27 654 34 39 128 46 84 942 157 48 215
internal_value=0 -0.0233653 -0.0669788 0.00793957 -0.0325366 0.0443937 0.0570259 -0.0290513 -0.00663238 -0.0490949 -0.0133957 -0.0487012 -0.0330616 -0.0432079 0.0378445 -0.0741636 -0.0748854 -0.0681046 -0.109832 -0.0266817 0.0597677 0.122157 -0.0584245 0.0307989 0.00800247 0.164044 0.080295 0.0273031 -0.0198633 -0.0602964
internal_weight=0 1504.42 628.626 875.794 415.003 460.791 623.793 132.744 123.176 98.4949 86.92 389.962 350.417 339.242 93.7566 245.486 611.309 590.817 294.325 296.492 425.805 135.019 25.4216 290.786 248.882 109.597 491.048 171.995 115.622 94.6697
internal_count=6246 4438 1908 2530 1212 1318 1808 387 358 286 251 1138 1013 981 279 702 1859 1801 914 887 1219 391 73 828 700 318 1421 479 322 263
is_linear=0
shrinkage=0.3


Tree=12
num_leaves=19
num_cat=0
split_feature=2 2 5 4 154 0 2 0 9 28 3 2 6 10 9 1 12 1
split_gain=6.57566 9.55205 9.57112 6.24903 5.95233 7.30399 6.19411 5.16889 4.39032 5.35594 11.5777 5.17767 4.31202 2.20724 2.09654 1.42455 1.37309 0.602115
threshold=1.8477224959345144 1.7970277262164707 0.90830616509224382 -3.7597750397258909 1.0000000180025095e-35 -0.78289645634838634 1.5942486473442961 0.30959042174634582 -2.8378787848569726 1.0000000180025095e-35 -0.45203832546461337 -1.4423680587665213 1.5403902405586185 -0.70634492186817488 0.11018237940357307 0.31025544178105618 0.59090720331629176 0.66085045252122188
decision_type=2 2 2 2 2 2 2 2 2 2 2 2 2 2 2 2 2 2
left_child=1 3 17 -1 6 -6 8 14 -5 11 -11 -10 13 -8 -7 -2 -15 -3
right_child=15 2 -4 4 5 7 12 -9 9 10 -12 -13 -14 16 -16 -17 -18 -19
leaf_value=0.36726357713480029 -0.25982707553662165 -0.022191691322678352 0.46873638463987605 0.26046962615033548 0.44716247165100803 0.053804841180559608 -0.025569844599717503 0.22228320707722116 -0.06795008126979428 -0.23364473166225797 0.0070439529269017108 0.01118548074164512 0.071318848058832318 -0.25746517028073201 -0.2089903271019147 -0.062072941006304873 -0.076881551316811014 0.11400709026389277
leaf_weight=4.2491638064384452 9.9013471603393537 6.1882709413766879 7.93712094426155 5.9632471799850455 5.6415319293737438 5.3929966539144534 6.9641917347908047 9.6090802103281003 78.756301656365395 26.83230622112751 54.561463564634323 1348.4422469139099 8.3243431150913221 17.705121234059337 5.537673681974411 4.9013651609420767 4.8215128183364859 5.5334926247596741
leaf_count=13 39 23 25 18 19 19 34 33 303 155 256 5112 36 74 23 22 20 22
internal_value=0 0.00652264 0.214353 0.00394132 0.00296333 0.144816 0.00057093 0.0617722 0.00356529 0.00254978 -0.0723016 0.00681859 -0.119358 -0.17318 -0.0793319 -0.194348 -0.218814 0.0421037
internal_weight=0 1602.46 19.6589 1582.8 1578.55 26.1813 1552.37 20.5398 1514.56 1508.59 81.3938 1427.2 37.8152 29.4908 10.9307 14.8027 22.5266 11.7218
internal_count=6246 6185 70 6115 6102 94 6008 75 5844 5826 411 5415 164 128 42 61 94 45
is_linear=0
shrinkage=0.3


Tree=13
num_leaves=31
num_cat=0
split_feature=10 6 6 5 3 3 0 0 10 10 10 8 0 10 5 67 2 8 10 7 7 3 1 14 13 0 132 9 10 11
split_gain=21.3906 13.1513 10.9194 10.0289 8.96254 11.9564 11.6583 11.2744 8.94772 8.90013 10.0184 8.89945 13.8713 7.25933 6.66283 7.48234 6.52608 6.35204 6.2579 6.17872 5.58162 9.47647 7.27615 5.40035 5.3559 5.30969 5.19621 5.00787 8.69879 5.90448
threshold=-0.59117388367879675 1.3042210756456862 1.2588039285470454 -0.79325253738198209 -0.62062858374381202 1.1533435369552199 -0.29734673275072759 -0.21642177881778454 1.5970758419193942 0.58711443010484421 0.5339585663251315 0.77932351698445046 -1.1470587490466302 -1.3619339084846371 1.1918992821712817 1.0000000180025095e-35 1.7970277262164707 -1.7744572298559402 -0.88353113446721865 0.68526391955530219 -1.014256992729007 -0.92006501262776208 1.0000000180025095e-35 -0.025467819974654925 0.36569287220761898 2.1708643622040378 1.0000000180025095e-35 0.81210170422751271 1.6502317056991067 1.4802429672152819
decision_type=2 2 2 2 2 2 2 2 2 2 2 2 2 2 2 2 2 2 2 2 2 2 2 2 2 2 2 2 2 2
left_child=3 2 9 24 18 6 16 -8 19 10 11 14 -13 -9 15 -2 -6 -15 -5 -3 27 -22 -23 -7 26 -26 -1 -11 29 -29
right_child=1 8 -4 4 5 23 7 13 -10 20 -12 12 -14 17 -16 -17 -18 -19 -20 -21 21 22 -24 -25 25 -27 -28 28 -30 -31
leaf_value=-0.20976577765029766 0.016443558564302817 0.1390612755961704 0.41277975090098301 -0.036211522829991183 -0.12613093264706612 -0.18865496038363985 0.48517942112400497 -0.14557406990867772 0.074353252127390981 0.22764886396390979 -0.1932068779248157 0.2844809427516683 -0.17327914286662757 0.37239187386828437 -0.20089481040509904 0.24964608241146827 0.28088551500390663 0.094577794934903175 -0.18242745728479129 -0.13824401370838593 0.43582546439605141 0.039013570108396005 -0.24847034772687121 0.11222920570358132 -0.091982086661836299 0.24620793102942248 0.096040764367604309 0.038088100281024793 -0.21043766836339897 0.27602662479186602
leaf_weight=67.900467246770859 536.86678110063076 7.8288013190031043 6.4777236431837073 65.374820619821548 29.115734949707985 28.488180130720139 7.5586771219968787 9.4115949720144254 27.961899772286415 27.935894757509232 23.609986320137978 6.8642844557762137 45.113522723317146 8.8473269790410978 12.361018940806387 12.674990832805632 4.0370440483093253 45.501318946480751 44.124932706356049 94.772395402193069 5.3369520902633658 418.95238788425922 8.0762376338243467 6.615330457687377 57.030574418604374 4.5085173845291129 5.3983323276042929 25.395998120307922 8.3484667837619764 14.889403671026228
leaf_count=375 1914 29 20 325 154 124 24 35 84 78 78 34 232 26 39 37 20 158 205 461 15 1243 29 30 286 16 30 73 29 43
internal_value=0 0.0141545 0.0243739 -0.0665582 -0.0308825 0.0195226 0.0704197 0.138747 -0.0760856 0.0221793 -0.00143859 0.00593686 -0.112827 0.0976785 0.0169229 0.0218223 -0.0765682 0.139803 -0.0951319 -0.117085 0.051763 0.0385417 0.0335765 -0.131953 -0.132459 -0.0672054 -0.187244 0.126419 0.0682719 0.12603
internal_weight=0 1283.47 1152.9 383.913 249.075 139.575 104.472 71.3189 130.563 1146.43 637.491 613.881 51.9778 63.7602 561.903 549.542 33.1528 54.3486 109.5 102.601 508.935 432.366 427.029 35.1035 134.838 61.5391 73.2988 76.5698 48.6339 40.2854
internal_count=6246 4438 3864 1808 1101 571 417 243 574 3844 2334 2256 266 219 1990 1951 174 184 530 490 1510 1287 1272 154 707 302 405 223 145 116
is_linear=0
shrinkage=0.3


Tree=14
num_leaves=31
num_cat=0
split_feature=10 7 2 41 7 181 70 2 40 124 0 0 181 2 7 103 9 2 2 7 6 10 2 2 10 43 4 8 9 1
split_gain=18.3698 19.0264 10.8779 9.74725 10.5401 9.94253 9.96542 9.34039 9.12593 9.09747 8.93301 8.80494 9.19793 13.9404 12.2045 8.86233 8.63369 8.92148 8.75209 8.52287 8.40137 16.1654 9.11343 9.8713 7.84616 9.78782 7.23079 6.7199 6.14937 10.1941
threshold=1.0000000180025095e-35 0.96568487008221304 1.6056549705308558 1.0000000180025095e-35 1.8154453262243677 1.0000000180025095e-35 1.0000000180025095e-35 -0.72883917498505635 1.0000000180025095e-35 1.0000000180025095e-35 -0.90428388724780107 -0.98520884118074414 1.0000000180025095e-35 1.0860335809209081 0.11592441394005827 1.0000000180025095e-35 1.3736371640866645 1.1646104739838756 0.71342702349328668 -1.4136444071158201 -1.5479757621489614 -0.17478628407104371 1.3090905676803002 1.374993768313757 -0.2988166328903748 1.0000000180025095e-35 1.4519402749073693 1.197214911921969 0.14761807672751706 -1.1310796023729581
decision_type=2 2 2 2 2 2 2 2 2 2 2 2 2 2 2 2 2 2 2 2 2 2 2 2 2 2 2 2 2 2
left_child=3 2 11 4 5 8 20 -3 19 10 16 -2 -13 14 15 -14 17 -9 -18 -1 21 -7 -22 -24 27 -26 -19 -21 -12 -30
right_child=1 7 -4 -5 -6 6 -8 9 -10 -11 28 12 13 -15 -16 -17 18 26 -20 24 22 -23 23 -25 25 -27 -28 -29 29 -31
leaf_value=-0.10375619777580268 -0.18831632832871606 0.28675764470118542 0.31074662090367 0.15437348698493966 -0.19881134529918651 -0.27128361955380842 -0.24558858956326099 0.053287082210053738 0.24196037552549526 -0.27737728326858591 0.089311842110137013 -0.069245789138137323 0.022162643094235705 -0.25765384460858543 0.18876706078855748 -0.26004215083653542 0.20060385285263105 0.30090907663680844 -0.13265571295971584 0.020652898520491493 0.15450711104169876 0.26539888888406304 -0.18655821482510274 0.11952778625302433 -0.022980771195401543 -0.31589367339468882 0.0005542298094890982 0.13389909214347651 0.11345899504253495 -0.20377148493770733
leaf_weight=59.973467960953712 44.243248701095581 13.621854424476622 7.2443729043006888 50.671138018369675 19.502531051635742 14.079356983304026 7.9871450364589682 54.468168035149574 14.911568075418471 8.3033103942871076 19.993534535169601 510.85380034148693 84.864941850304604 15.140096530318258 38.475948005914688 11.355329141020773 9.8421970009803754 33.571369349956512 25.384596347808838 532.55716124176979 136.77786703407764 7.877313256263732 16.454852819442749 22.379711091518402 173.10198417305946 10.914562642574309 9.1879995167255384 51.739910036325455 12.870870709419249 31.257168784737587
leaf_count=184 130 43 21 179 56 52 22 162 41 25 59 1633 263 55 116 45 27 99 75 1535 433 23 49 69 504 30 27 162 38 89
internal_value=0 -0.031234 -0.0549933 0.0258097 0.0197115 0.0237751 0.0829357 0.0462063 0.00935285 0.0302127 0.0432052 -0.0587519 -0.0500755 0.0152837 0.0459624 -0.0111414 0.0877015 0.133804 -0.0395446 0.00516524 0.0962169 -0.07874 0.118092 -0.010166 0.0136675 -0.0403543 0.23637 0.0306809 -0.0487097 -0.111245
internal_weight=0 930.679 712.178 1118.93 1068.26 1048.75 205.556 218.501 843.199 204.879 196.576 704.933 660.69 149.836 134.696 96.2203 132.454 97.2275 35.2268 828.287 197.569 21.9567 175.612 38.8346 768.314 184.017 42.7594 584.297 64.1216 44.128
internal_count=6246 2907 2263 3339 3160 3104 648 644 2456 601 576 2242 2112 479 424 308 390 288 102 2415 626 75 551 118 2231 534 126 1697 186 127
is_linear=0
shrinkage=0.3


Tree=15
num_leaves=31
num_cat=0
split_feature=156 5 3 0 1 7 7 4 144 7 40 6 5 9 0 2 1 14 2 2 14 9 5 1 5 5 11 8 6 14
split_gain=4.82913 4.6847 10.8112 10.4564 7.72659 9.65244 15.736 7.13665 6.41835 6.05456 5.20131 4.55875 8.07658 11.1529 7.52887 8.65634 7.11122 6.26918 5.89369 6.27068 5.83565 4.95654 14.1568 5.92635 4.39392 3.79285 3.56849 2.73123 7.14139 1.46705
threshold=1.0000000180025095e-35 -1.5022353300795761 -1.237115349093121 0.6332902374781183 1.1283104668414428 1.4245555163989774 0.17540764587000937 -1.1539173824092608 1.0000000180025095e-35 0.68526391955530219 1.0000000180025095e-35 -0.73955054379315344 0.48291648947368732 1.6918405913401842 1.8876270234387369 0.96436613359760293 0.42712044536111138 -0.036319425599213924 1.8477224959345144 1.7970277262164707 -0.30187641730781206 0.250566244368361 0.48291648947368732 1.7126354847417189 -1.7858284471586139 -1.9276250056981326 -1.3226876498778093 -0.14932402732114627 0.39587813367286856 -0.32977061625513943
decision_type=2 2 2 2 2 2 2 2 2 2 2 2 2 2 2 2 2 2 2 2 2 2 2 2 2 2 2 2 2 2
left_child=1 2 7 4 5 6 24 -1 10 -8 11 12 14 20 15 -3 18 -16 19 -13 -14 23 -23 -18 -4 -5 -9 -2 -29 -6
right_child=27 8 3 25 29 -7 9 26 -10 -11 -12 16 13 -15 17 -17 21 -19 -20 -21 -22 22 -24 -25 -26 -27 -28 28 -30 -31
leaf_value=0.19026586426514844 0.27963730521518271 0.10163410815604192 0.11023998332664428 -0.20614013010973462 0.44088654403705585 -0.24427744691104128 0.64498026201507497 -0.20881113855679512 0.23663558169232263 0.23828906579969955 -0.25733778672214824 0.0010189596879283855 -0.16424534197940638 0.26516037826912875 -0.096836692507435387 -0.085342522260481196 -0.092492670779622213 0.19822163967211492 -0.24302715991980911 0.20394571015382848 0.0087812831107071266 -0.060317280995278159 0.46073743285776203 0.029468182437879704 -0.17342293521030652 0.056099017300355998 0.085211094705353693 -0.17121313162670987 0.23575176506256687 0.25745564082106637
leaf_weight=6.7375579327344886 8.1401049792766589 184.44003409147263 17.937994956970215 9.3285124152898806 9.1763512492179888 5.7224377617239943 6.4869587570428831 21.020251408219337 10.10691526532173 6.6944904625415802 7.2155832648277274 828.29820751398802 42.561465427279472 8.7769715785980207 41.786724075675011 25.3469447940588 185.94659192860126 7.6706029102206221 8.7560721635818464 13.9355571269989 29.844411641359329 18.428440436720852 6.2962853312492362 44.425250813364983 6.7692278847098377 10.608845144510267 4.5126196146011379 6.6547745168209067 9.309556692838667 6.8559358417987815
leaf_count=25 23 632 61 38 29 31 22 99 37 30 28 3199 199 31 167 97 803 30 43 48 121 72 26 193 31 36 20 21 31 23
internal_value=0 0.00291485 0.0620919 0.121485 0.184357 0.118889 0.173739 -0.0843748 -0.00160685 0.438433 -0.00326321 -0.00199582 0.0283616 -0.0542127 0.05422 0.0790432 -0.0113391 -0.0510745 0.00183097 0.00437658 -0.0929269 -0.0552739 0.0723721 -0.0689736 0.0325227 -0.0666003 -0.156846 0.138217 0.0661074 0.362445
internal_weight=0 1575.69 111.851 79.5808 59.6434 43.6111 37.8887 32.2704 1463.84 13.1814 1453.73 1446.51 340.427 81.1828 259.244 209.787 1106.09 49.4573 850.99 842.234 72.4059 255.097 24.7247 230.372 24.7072 19.9374 25.5329 24.1044 15.9643 16.0323
internal_count=6246 6171 445 301 227 175 144 144 5726 52 5689 5661 1277 351 926 729 4384 197 3290 3247 320 1094 98 996 92 74 119 75 52 52
is_linear=0
shrinkage=0.3


Tree=16
num_leaves=31
num_cat=0
split_feature=11 8 11 39 8 3 2 131 6 3 14 109 11 1 6 4 9 96 0 3 9 8 11 181 11 3 3 9 13 6
split_gain=13.7194 11.3818 7.88198 7.89785 7.5217 7.26696 6.34656 6.55202 7.26854 6.49928 5.99732 8.5667 5.3588 5.13396 5.16738 5.95856 10.1522 9.15309 8.01454 6.23277 6.20002 7.72869 6.031 4.92369 10.4599 5.35413 7.03909 6.6285 6.10761 4.13187
threshold=0.51037078136992176 1.1507825347066893 -1.5166620870468812 1.0000000180025095e-35 -1.737311328083716 -0.87728837993005493 1.374993768313757 1.0000000180025095e-35 -0.27629564338701701 0.92939528342016475 -0.15318031843865554 1.0000000180025095e-35 -0.21703335801409843 -0.74152959043944078 -1.6478934857659708 -0.57483790300556536 0.81210170422751271 1.0000000180025095e-35 1.604389684673436 0.2663574766057038 0.99928019084722985 1.2807931909094734 0.70434521853899368 1.0000000180025095e-35 0.70434521853899368 1.3848406080251643 0.91933019337364541 1.4204317857415936 0.50676116842651886 -0.14912763151082203
decision_type=2 2 2 2 2 2 2 2 2 2 2 2 2 2 2 2 2 2 2 2 2 2 2 2 2 2 2 2 2 2
left_child=1 2 4 6 -1 -2 7 10 -9 -8 11 -4 -12 14 -7 16 -16 19 20 -18 22 -22 -17 25 -25 26 27 28 -15 -28
right_child=5 -3 3 -5 -6 13 9 8 -10 -11 12 -13 -14 23 15 18 17 -19 -20 -21 21 -23 -24 24 -26 -27 29 -29 -30 -31
leaf_value=0.15744816315609703 -0.21819213703652232 -0.13771165199201699 0.0071663049776179953 -0.2793821992836707 -0.14879861078365789 -0.14294462906494726 0.18558702777159811 0.52400868470303674 -0.0011666743809253832 -0.15976728259893752 -0.096733761720999845 0.29839429085285035 0.0010347253042200751 0.2266726940267017 0.2797598309649707 0.054333353013279198 -0.12763807238750088 -0.23802282708002001 -0.27725109625928523 0.14333129943462122 0.068242229394152046 -0.072014154576187275 -0.11185072256282078 -0.25670535479563777 0.19445807333504264 0.2905203681925162 0.11915136760122541 -0.12252881383371397 0.043860666017452005 -0.1767422384055099
leaf_weight=8.1700611859559995 10.177019782364367 74.676972068846226 632.19392870366573 9.5990296453237516 61.938876189291477 16.483944296836853 5.6116679310798636 4.5051739811897278 5.0087393224239332 38.907117940485477 101.10119533538818 9.2231723070144636 100.72306995838881 44.261592753231525 21.259963035583496 30.914441913366318 9.5385570228099805 9.1521231234073621 8.4693472981452924 38.379776164889336 196.68989713490009 43.109003633260727 53.958927229046822 10.229335613548757 8.4415322691202146 13.54508602619171 6.4602021872997311 8.4448774307966215 26.173915266990662 12.399695828557013
leaf_count=27 46 490 2463 35 361 57 32 17 26 208 434 32 344 133 60 101 28 26 23 114 568 145 181 49 30 42 18 29 80 47
internal_value=0 -0.024826 -0.0161975 -0.00870526 -0.113111 0.0330324 -0.00580956 -4.47198e-05 0.247522 -0.116235 -0.00283791 0.011354 -0.0479411 0.037615 0.0217565 0.0283546 0.102806 0.0368864 0.0108491 0.0893925 0.0183645 0.0430281 -0.0513195 0.0898385 -0.0527239 0.113757 0.0892605 0.128627 0.15874 -0.0753879
internal_weight=0 1051.66 976.982 906.873 70.1089 568.089 897.274 852.755 9.51391 44.5188 843.241 641.417 201.824 557.912 427.956 411.472 78.3304 57.0705 333.142 47.9183 324.672 239.799 84.8734 129.956 18.6709 111.285 97.7403 78.8804 70.4355 18.8599
internal_count=6246 4469 3979 3591 388 1777 3556 3316 43 240 3273 2495 778 1731 1303 1246 228 168 1018 142 995 713 282 428 79 349 307 242 213 65
is_linear=0
shrinkage=0.3


Tree=17
num_leaves=31
num_cat=0
split_feature=11 8 90 128 8 8 6 41 154 7 1 1 3 183 181 3 1 103 7 6 2 2 103 6 1 1 93 178 6 4
split_gain=11.7579 13.5239 15.4629 7.87289 7.79873 9.94425 7.69659 7.35763 7.47131 6.75867 7.27407 7.36695 6.57565 6.30062 6.18404 11.779 8.3615 7.85908 10.7701 10.7772 6.50592 10.1092 6.06732 6.04596 5.93782 5.30548 6.41137 5.6497 7.36567 5.85214
threshold=0.42308228464383862 -0.33505353618226558 1.0000000180025095e-35 1.0000000180025095e-35 1.197214911921969 1.0114854030608498 0.57754672206743207 1.0000000180025095e-35 1.0000000180025095e-35 1.2546034251705462 0.3492104429744079 -0.11824957134581303 -0.89238601499983394 1.0000000180025095e-35 1.0000000180025095e-35 0.52050100028031687 -0.42988958089262691 1.0000000180025095e-35 1.0251681020121641 -0.69413339669451257 1.5397517698973988 1.5689012624852741 1.0000000180025095e-35 1.2224702108681322 1.8295004883217743 1.4399504763882567 1.0000000180025095e-35 1.0000000180025095e-35 -0.45796423178158047 -0.14052829345279383
decision_type=2 2 2 2 2 2 2 2 2 2 2 2 2 2 2 2 2 2 2 2 2 2 2 2 2 2 2 2 2 2
left_child=1 2 6 4 5 7 25 8 -3 13 11 -11 -2 -7 20 16 22 18 19 -17 -14 -22 -16 -15 -6 26 -1 -27 -29 -30
right_child=12 3 -4 -5 24 9 -8 -9 -10 10 -12 -13 14 23 15 17 -18 -19 -20 -21 21 -23 -24 -25 -26 27 -28 28 29 -31
leaf_value=-0.043926620809865445 0.16257836429702344 0.038078939522044941 0.25526881848155009 -0.22278756166117505 0.12424645972998535 -0.37650718535089411 0.24537773719773631 0.2027389860770355 -0.18733524884901734 0.1251942482941506 0.27594906680191955 -0.3081234153564173 -0.071282546903507979 0.030875399323962952 0.25728932698264939 0.09488948049056177 -0.15852049097133533 -0.21262564903073886 0.19674553369426093 -0.17863646708735056 0.37063320181907672 -0.012525186023514141 -0.0049143243267151995 -0.24872403644119417 -0.11526394570435104 0.11355275576217412 -0.29633897128683795 -0.16810321713725257 0.31369915320689379 -0.067408362436122485
leaf_weight=427.5853485763073 14.679011434316633 610.67678637802601 17.452239125967026 10.278089106082914 127.4596095085144 9.529408931732176 8.8622854053974134 23.918961212038994 13.526684433221815 7.2911504209041604 7.8179649114608756 6.8474129140377054 388.3775297999382 15.549135744571688 29.91059122979641 21.573777705430984 7.4240741729736319 20.482291772961617 18.307113796472549 32.486958265304565 7.3072735965251914 40.799256652593613 10.814253389835356 12.601214453577994 10.050381153821943 40.28184600174427 9.252729192376135 20.314249038696289 6.8339731097221375 7.7258102893829328
leaf_count=1310 47 1850 51 30 423 27 25 91 38 24 27 20 1301 45 87 66 24 82 59 109 23 125 37 38 34 126 28 57 19 23
internal_value=0 0.0147527 -0.022501 0.0381927 0.0413661 0.0286644 -0.0318081 0.0394512 0.0331941 -0.0885653 0.0437374 -0.0846648 -0.0357073 -0.16566 -0.0407476 0.013874 0.134285 -0.048567 -0.00213338 -0.0694817 -0.0583921 0.0456757 0.187663 -0.0942844 0.106741 -0.036606 -0.049273 0.0370197 -0.051381 0.111473
internal_weight=0 1393.86 538.308 855.547 845.269 707.759 520.856 648.122 624.203 59.6363 21.9565 14.1386 592.162 37.6798 577.483 140.999 48.1489 92.8501 72.3678 54.0607 436.484 48.1065 40.7248 28.1504 137.51 511.994 436.838 75.1559 34.874 14.5598
internal_count=6246 4286 1639 2647 2617 2160 1588 1979 1888 181 71 44 1960 110 1913 464 148 316 234 175 1449 148 124 83 457 1563 1338 225 99 42
is_linear=0
shrinkage=0.3


Tree=18
num_leaves=23
num_cat=0
split_feature=7 6 1 76 5 9 104 6 11 6 2 7 94 2 154 0 144 2 12 12 41 0
split_gain=3.51754 3.71999 4.09049 3.43281 5.89257 7.29433 3.22186 4.46314 8.56337 3.80092 4.27646 3.57508 3.28099 3.13746 2.96928 4.02541 2.90967 2.8278 0.501936 0.204718 0.0159979 0.000484113
threshold=2.0448806493827503 1.9037274173477454 -1.0531695999862545 1.0000000180025095e-35 -0.3678628617634257 0.85889632588244191 1.0000000180025095e-35 -0.049209907893812639 -1.3226876498778093 -2.0112306625550977 -1.299155334313048 -1.6940653576427309 1.0000000180025095e-35 -1.0735636090677534 1.0000000180025095e-35 -0.78289645634838634 1.0000000180025095e-35 -0.64265806646438206 -0.72225548650709781 0.53227281547005179 1.0000000180025095e-35 -0.82335893331485788
decision_type=2 2 2 2 2 2 2 2 2 2 2 2 2 2 2 2 2 2 2 2 2 2
left_child=1 3 -3 6 -5 -6 9 -8 -9 10 11 -1 14 18 16 -16 -11 -2 -12 20 -4 -22
right_child=17 2 19 4 5 -7 7 8 -10 12 13 -13 -14 -15 15 -17 -18 -19 -20 -21 21 -23
leaf_value=0.11366627852135396 -0.015079460051121736 0.16178950324635286 -0.24286916666812228 -0.13028103318546794 0.36100407790352768 -0.012618027287219752 0.24844604693625816 0.26090898092919923 -0.25884937449207124 -0.0031009536042502879 0.21272152388175886 -0.20675594957817839 -0.19057323028676967 0.037730817450757043 0.32835079070458401 0.037980241428619284 0.14638333259840519 0.25381090788719168 0.32886656521922408 -0.14536518110597435 -0.22212603105918724 -0.21593399639544897
leaf_weight=6.5287184715270996 5.7367230206727973 3.2947102934122112 5.6305137276649457 6.6343694925308254 10.770202413201334 8.3481293469667417 11.321063816547396 5.3338666558265686 6.1334266141056997 1419.616745620966 6.7852378934621793 6.0268769711256009 8.1837100982665998 8.5845600366592425 5.5359292626380947 19.196807354688644 11.816661000251768 9.1094437092542631 6.6122185289859772 3.2173184826970092 2.2137856557965279 2.3349535241723061
leaf_count=25 21 11 27 26 38 32 35 16 27 5643 21 28 33 32 17 66 39 28 21 20 17 23
internal_value=0 0.0031901 -0.13768 0.00470959 0.113325 0.19786 0.00287139 0.114826 -0.0170903 0.00116929 0.0995381 -0.0401413 -0.0011508 0.17932 -8.62383e-05 0.102974 -0.00186694 0.149909 0.270044 -0.21133 -0.232179 -0.218948
internal_weight=0 1564.12 16.6913 1547.43 25.7527 19.1183 1521.68 22.7884 11.4673 1498.89 34.5376 12.5556 1464.35 21.982 1456.17 24.7327 1431.43 14.8462 13.3975 13.3966 10.1793 4.54874
internal_count=6246 6197 98 6099 96 70 6003 78 43 5925 127 53 5798 74 5765 83 5682 49 42 87 67 40
is_linear=0
shrinkage=0.3


Tree=19
num_leaves=31
num_cat=0
split_feature=10 5 7 10 10 10 3 7 179 4 6 9 181 11 11 4 8 12 11 9 9 2 167 6 9 3 6 3 3 4
split_gain=8.32017 6.7921 6.66408 6.59056 6.31657 9.95438 8.3562 8.41989 7.95061 7.47767 7.18969 6.56487 6.16052 7.92289 6.55759 5.80215 10.2139 5.15657 5.11133 8.63951 8.81323 5.57776 4.90888 6.50381 5.18565 4.85728 7.79401 4.75849 7.95132 5.86086
threshold=-0.59117388367879675 -0.79325253738198209 -0.44491748711376328 -0.88353113446721865 -0.47600284548941857 0.11757096671737828 -1.1414969936511874 -1.6345821257127797 1.0000000180025095e-35 -2.0225366015148039 -1.1846385853598345 0.14761807672751706 1.0000000180025095e-35 0.94681326500033369 1.1989800333201268 -1.0091475125583369 -0.66008017668922436 0.19463778064866413 -1.2741940405855412 -1.2000670269344471 -0.82571005369501294 -1.0330077932933184 1.0000000180025095e-35 -0.33079621990538549 0.11018237940357307 -0.61559603872055246 -1.60247633866733 1.0677902715598055 -0.32874097239475158 1.0000000180025095e-35
decision_type=2 2 2 2 2 2 2 2 2 2 2 2 2 2 2 2 2 2 2 2 2 2 2 2 2 2 2 2 2 2
left_child=1 -1 4 15 -2 6 10 -8 11 -7 -6 -9 22 -14 -15 -3 17 -17 -4 -20 21 -21 24 -24 -11 -5 -27 28 -18 -30
right_child=2 3 18 25 5 9 7 8 -10 12 -12 -13 13 14 -16 16 27 -19 19 20 -22 -23 23 -25 -26 26 -28 -29 29 -31
leaf_value=-0.10619460158440568 0.18376807380776355 -0.12536117096942342 -0.19880911593284384 -0.16169938282733218 -0.047985811165808058 0.26689274766213517 0.12064284083679802 -0.097736723163252978 -0.23516160497822852 0.17462571436087884 0.33572281821815042 0.047765928519555391 -0.19729937145690341 0.29727523916534826 -0.082413790387457081 0.0089669162915039288 -0.036284699945672558 0.30379502998018182 0.28594888994620071 0.14009257278735265 -0.0028893629717392367 -0.20704766142246722 0.11213136181469967 -0.29720453558942589 0.05786835596027029 0.27935983890426386 -0.064916324084955956 -0.13194050370868671 0.28677320430597364 0.0027847007215163477
leaf_weight=112.04095447808504 24.636601895093918 19.763718731701374 12.642003230750559 37.477668426930904 7.7653968036174801 15.709187373518942 23.256168469786644 73.890037417411804 23.094487175345421 45.337995931506157 10.125574886798857 44.845935583114624 18.567000985145569 7.4340838789939907 9.1112977117300016 7.5545310080051449 47.25363901257515 18.20577098429203 8.9857271909713727 4.8479356318712226 722.807980902493 29.60331092774868 6.8090686798095703 7.1741393208503705 139.80456621944904 6.7998600900173178 45.644424833357334 18.585696369409561 15.647705867886545 11.237282097339628
leaf_count=707 79 83 72 205 31 48 72 241 89 133 33 127 65 24 37 26 266 64 48 17 2703 173 19 22 405 19 219 98 55 66
internal_value=0 -0.0457037 0.00727409 -0.0160002 0.0360094 0.0276008 -0.0255668 -0.0466719 -0.0741068 0.066523 0.169178 -0.0427812 0.0530852 -0.0627752 0.0881861 0.0251201 0.0502209 0.217333 -0.00960663 -0.00648504 -0.0099551 -0.158199 0.0735152 -0.09788 0.0864601 -0.0792195 -0.0202779 0.00379453 0.0378217 0.168073
internal_weight=0 340.211 1236.45 228.17 457.562 432.925 182.978 165.087 141.83 249.947 17.891 118.736 234.238 35.1124 16.5454 138.248 118.485 25.7603 778.887 766.245 757.259 34.4512 199.126 13.9832 185.143 89.922 52.4443 92.7243 74.1386 26.885
internal_count=6246 1808 4438 1101 1425 1346 593 529 457 753 64 368 705 126 61 658 575 90 3013 2941 2893 190 579 41 538 443 238 485 387 121
is_linear=0
shrinkage=0.3


Tree=20
num_leaves=31
num_cat=0
split_feature=6 10 167 0 1 10 4 115 2 11 9 4 8 9 0 65 146 28 2 5 120 71 6 2 6 1 152 13 1 9
split_gain=8.05677 7.62761 7.76956 8.28673 12.2712 6.73909 8.21803 6.83542 7.31272 6.68079 9.48478 8.61862 6.12317 6.00103 5.79145 5.05579 4.69681 4.85367 7.955 8.90558 6.04851 7.52722 5.77347 5.11586 7.50255 4.62993 4.34265 3.90696 3.39427 3.35094
threshold=1.9037274173477454 1.0000000180025095e-35 1.0000000180025095e-35 -0.82335893331485788 -1.2479446059530133 1.8894330927078162 1.7414800146092171 1.0000000180025095e-35 1.1164504427517341 1.6354225169505388 0.11018237940357307 0.29378131609997793 -0.28862115896698576 1.5046621047204669 2.2517893161369811 1.0000000180025095e-35 1.0000000180025095e-35 1.0000000180025095e-35 1.3090905676803002 -1.644031888619095 1.0000000180025095e-35 1.0000000180025095e-35 0.63204729858580067 0.47262686733257908 -0.45796423178158047 -0.079294570152461288 1.0000000180025095e-35 -0.26562395282061035 -0.62466458685938553 -0.45135308045557848
decision_type=2 2 2 2 2 2 2 2 2 2 2 2 2 2 2 2 2 2 2 2 2 2 2 2 2 2 2 2 2 2
left_child=1 15 3 4 -3 6 7 8 -5 10 11 -6 -9 -11 -7 16 17 20 19 -19 21 22 -1 24 -22 -12 -21 -2 -4 -25
right_child=27 2 28 5 9 14 -8 12 -10 13 25 -13 -14 -15 -16 -17 -18 18 -20 26 23 -23 -24 29 -26 -27 -28 -29 -30 -31
leaf_value=-0.0020453337153690499 0.23227522196965414 0.30355123280193386 0.23586431797700455 -0.026339875522392493 0.11795187425615282 -0.23303523180343386 0.25476451302007097 0.009602403612977874 -0.14068076155237175 0.13616915031609816 0.04239137524639848 -0.17957162356314646 -0.32435341379013122 -0.19662839143166902 0.10725496583084881 -0.21738378431906943 0.24578860849106254 -0.16351419295909206 -0.12988230368262985 0.25706453060092194 -0.20695647494732983 0.26763813080050469 0.053242246736634045 -0.41415157526252905 0.12390087988566227 0.21678699433733967 0.0037597976270543876 0.010052413648125761 0.046143279473485253 -0.11183979921505972
leaf_weight=703.00923055410385 19.66220244765282 12.834136784076689 12.473154768347738 464.38992320746183 12.071919560432432 28.428042158484459 8.3214943706989271 7.523118972778323 56.461055919528008 6.1149642169475582 122.18796142935753 31.965953171253204 14.398309797048567 24.077866718173027 5.3480209261178961 8.40971592068672 7.9555433988571158 6.7836936563253394 11.003503501415251 31.862073689699173 11.38053385913372 10.427663862705229 224.20357358455658 6.4163837730884552 13.468323841691017 15.431076705455778 7.5310876071453086 11.162882372736929 26.557512208819389 6.793942987918852
leaf_count=2115 81 39 37 1571 39 112 25 29 199 18 393 98 44 82 18 23 25 25 32 132 38 29 764 20 42 51 26 37 81 21
internal_value=0 -0.00281355 -0.023962 -0.030265 0.0187054 -0.0490775 -0.0411052 -0.0456413 -0.0387346 0.00144903 0.0231684 -0.0980127 -0.209745 -0.129227 -0.179154 0.0142904 0.0161622 0.0143936 0.0993441 0.153967 0.00941512 0.0141739 0.0113234 -0.107825 -0.0276286 0.0619462 0.208638 0.1518 0.106773 -0.258676
internal_weight=0 1897.83 848.585 809.554 224.684 584.87 551.094 542.772 520.851 211.85 181.657 44.0379 21.9214 30.1928 33.7761 1049.25 1040.84 1032.88 57.1804 46.1769 975.7 937.64 927.213 38.0592 24.8489 137.619 39.3932 30.8251 39.0307 13.2103
internal_count=6246 6128 2836 2718 720 1998 1868 1843 1770 681 581 137 73 100 130 3292 3269 3244 215 183 3029 2908 2879 121 80 444 158 118 118 41
is_linear=0
shrinkage=0.3


Tree=21
num_leaves=27
num_cat=0
split_feature=156 2 2 5 11 0 11 5 4 10 122 2 41 11 13 10 7 14 11 3 3 2 0 12 1 8
split_gain=3.05401 2.91669 3.74431 4.87447 2.79741 6.10271 4.51252 4.36372 7.70904 4.11951 3.61751 6.21658 3.50418 3.09209 2.92057 2.90041 4.5927 3.7511 2.89849 2.89435 4.65681 2.40869 3.99572 1.63563 0.53279 0.00358021
threshold=1.0000000180025095e-35 1.8477224959345144 1.7970277262164707 0.90830616509224382 1.9748777819964147 -0.94474636421427249 1.392954470489199 1.6172889577898382 0.58332105580182569 1.7122468801087725 1.0000000180025095e-35 0.47262686733257908 1.0000000180025095e-35 1.7227110136766217 0.54552284407522922 1.4198896293203505 0.11592441394005827 -0.10779106445693808 1.8293969541196109 -0.61559603872055246 1.2011527146761867 0.30786886574893707 -1.0000000180025095e-35 0.78668583995407848 0.7387604549079253 1.5222415524289279
decision_type=2 2 2 2 2 2 2 2 2 2 2 2 2 2 2 2 2 2 2 2 2 2 2 2 2 2
left_child=1 2 4 24 6 -6 7 10 14 15 12 -12 -1 -11 -9 16 -8 -17 -15 -7 -21 22 -2 25 -4 -3
right_child=21 23 3 -5 5 19 9 8 -10 13 11 -13 -14 18 -16 17 -18 -19 -20 20 -22 -23 -24 -25 -26 -27
leaf_value=0.0043199843480381632 0.31787841136524148 -0.2300682942031104 -0.045370103444998783 0.31646962573572074 -0.15895626129653614 0.0029784205723191021 -0.14392986656787507 0.42314891963441342 -0.13310071487309813 -0.093434399534503221 0.40127115569092053 -0.048247402522042376 -0.089899355036311093 0.28534734819668778 0.14197327817445396 -0.20831941964594977 0.021628805137619764 0.019082738522392239 0.0083545802274019153 0.38288077420214173 0.042478969182337033 -0.026035619909469641 0.017503836809667172 0.011872322092324035 0.084958058072970896 -0.24354753330906423
leaf_weight=1296.5243692621589 8.5295689702034032 3.4666359424591047 6.5987966209650057 7.883680820465087 6.4626810699701336 6.2890976071357789 24.806088298559189 6.2663358002901095 6.1006636619567862 7.2065404355525997 5.4738636910915357 5.6030189692974091 36.527041062712669 6.9381659626960737 7.0824061036109924 25.991627916693687 38.462278217077255 8.7182986885309202 6.6671754866838455 8.9544837176799721 6.0680582523345938 7.7714522182941428 7.4820006787776956 3.5747813284397125 4.933862566947937 3.6309850960969925
leaf_count=5101 25 23 26 25 28 24 113 21 21 29 22 21 247 21 25 116 138 37 25 28 23 28 22 19 19 19
internal_value=0 0.00267298 0.00376346 0.134666 0.00208041 0.0964096 0.000313011 0.00519844 0.146282 -0.0557663 0.00315698 0.173891 0.00173827 0.0654506 0.273966 -0.0815143 -0.043283 -0.151201 0.14961 0.173848 0.245382 0.111003 0.177517 -0.153615 0.0103864 -0.236964
internal_weight=0 1540.23 1529.56 19.4163 1510.14 27.7743 1482.37 1363.58 19.4494 118.79 1344.13 11.0769 1333.05 20.8119 13.3487 97.9783 63.2684 34.7099 13.6053 21.3116 15.0225 23.783 16.0116 10.6724 11.5327 7.09762
internal_count=6246 6171 6110 70 6040 103 5937 5458 67 479 5391 43 5348 75 46 404 251 153 46 75 51 75 47 61 45 42
is_linear=0
shrinkage=0.3


Tree=22
num_leaves=31
num_cat=0
split_feature=11 7 164 54 6 183 1 8 8 175 41 1 0 0 96 103 13 13 3 5 14 13 13 3 6 13 10 6 10 7
split_gain=5.96319 5.99891 5.80752 4.61433 4.56145 5.33174 6.76533 6.26279 5.02299 4.48885 4.4949 5.36099 7.67602 4.88802 6.44624 5.99215 3.20398 4.08046 2.5289 2.46646 2.25502 2.66209 1.41827 1.27336 2.79418 0.845433 0.411992 0.298318 0.14107 0.11763
threshold=-1.5166620870468812 -1.6940653576427309 1.0000000180025095e-35 1.0000000180025095e-35 1.6221411053361725 1.0000000180025095e-35 -0.81943959282614431 1.652252208631712 1.7079710612900472 1.0000000180025095e-35 1.0000000180025095e-35 -0.66361958805273724 -0.78289645634838634 -0.94474636421427249 1.0000000180025095e-35 1.0000000180025095e-35 0.42455469621127001 0.68278756656166706 -1.0584600007674028 -1.2186422130005385 -0.36626906317764818 -0.48015159330667434 0.49446700134170424 -1.413254424907209 -0.55788195539858987 0.86557587355452525 0.76430064270388798 0.087041533402110016 1.5970758419193942 -0.50440071904371431
decision_type=2 2 2 2 2 2 2 2 2 2 2 2 2 2 2 2 2 2 2 2 2 2 2 2 2 2 2 2 2 2
left_child=1 -1 4 16 8 28 7 -7 9 10 13 12 -12 14 -2 -15 23 19 -4 -18 27 -22 -8 24 -3 -19 -13 -11 -6 -20
right_child=2 3 18 -5 5 6 22 -9 -10 20 11 26 -14 15 -16 -17 17 25 29 -21 21 -23 -24 -25 -26 -27 -28 -29 -30 -31
leaf_value=0.3079188975526565 0.044305768195501284 0.20396211727399979 0.01528950829794678 0.13051552025532917 -0.22769161757730372 -0.087463123458657546 -0.21960196761459638 0.29446215955368854 -0.23364706368497462 -0.23807829143807871 0.10892824008847043 -0.20094589639888366 -0.29811568153030626 0.0003089588184076636 0.27700983980933624 0.1045318213252273 -0.035593161083925462 -0.058374878322786324 -0.29175838651799418 0.34078005199340833 -0.14502090965057313 0.16762615667317168 -0.019178879130929111 -0.22850153889604427 -0.21778573482389679 -0.22375889531330004 -0.32517150247413407 -0.13335261577509783 -0.2928810634347932 -0.2296539266545054
leaf_weight=3.138821840286254 136.6288757622242 2.0972709059715271 4.117083638906478 6.0239797458052626 9.2315912768244726 7.2401160299777976 11.250717341899874 8.2870497554540616 7.90814135223627 9.3079614639282244 16.188218697905544 13.410600684583189 5.6161857247352591 1148.5667850524187 11.625344961881636 51.890731871128082 3.1561168730258942 4.9871139079332334 5.4377981126308432 3.1123358160257366 6.1847408711910248 4.0601444914937002 4.4283886961638919 27.663424715399742 4.3384375423192969 6.2910775691270828 2.9272148609161368 3.3216185420751563 4.4171033501625052 5.542513780295848
leaf_count=13 634 16 21 27 75 28 107 26 46 54 70 119 17 4225 35 166 23 28 18 18 34 20 37 213 42 49 10 24 14 37
internal_value=0 -0.0959736 -0.000113982 -0.117956 0.00179694 -0.0923927 -0.0239898 0.116375 0.00477717 0.00611466 0.00828876 -0.0932712 0.00408547 0.0111609 0.0625532 0.00481408 -0.146938 -0.0427729 -0.185226 0.151279 -0.125699 -0.0211159 -0.162995 -0.200539 -0.0803464 -0.150628 -0.223203 -0.210535 -0.248789 -0.26041
internal_weight=0 60.8086 1477.59 57.6698 1462.49 44.855 31.2063 15.5272 1417.64 1409.73 1386.85 38.1422 21.8044 1348.71 148.254 1200.46 51.6458 17.5466 15.0974 6.26845 22.8745 10.2449 15.6791 34.0991 6.43571 11.2782 16.3378 12.6296 13.6487 10.9803
internal_count=6246 429 5817 416 5741 287 198 54 5454 5408 5276 216 87 5060 669 4391 389 118 76 41 132 54 144 271 58 77 129 78 89 55
is_linear=0
shrinkage=0.3


Tree=23
num_leaves=31
num_cat=0
split_feature=111 4 10 24 4 8 9 13 4 0 178 12 6 7 1 0 4 0 0 6 14 12 2 0 0 9 8 2 2 2
split_gain=6.96778 6.81249 8.02583 6.67891 6.46513 7.90678 5.22127 8.21025 6.10309 9.41125 9.13553 6.01835 6.18562 9.55351 6.79836 6.28519 5.9948 5.03774 8.30284 5.64097 5.79989 5.24337 4.64403 9.58996 7.26294 6.18037 6.15805 4.73085 4.6208 7.44778
threshold=1.0000000180025095e-35 0.43855118595090176 0.71114477892417527 1.0000000180025095e-35 -0.28529816330371771 -0.33505353618226558 0.14761807672751706 -0.69631980762076195 -0.57483790300556536 1.5234647307404929 1.0000000180025095e-35 0.45831728073142003 -0.87580198508907603 -0.27496539588533236 -0.70257458924608907 -0.45919664061661386 -1.4434571221111088 1.0000000180025095e-35 -0.62104654848250007 1.5403902405586185 -0.24509273479591157 1.0292354800617622 -0.73137391347095859 1.2806898689416635 1.8471645464722652 -1.7241667894696548 0.26856736761637223 -0.059668214706879753 1.0353388112028641 -0.92147929991362243
decision_type=2 2 2 2 2 2 2 2 2 2 2 2 2 2 2 2 2 2 2 2 2 2 2 2 2 2 2 2 2 2
left_child=3 4 -3 6 5 -2 7 16 9 28 -11 12 -10 14 -14 -15 -1 18 19 20 -9 -20 23 26 -25 -24 -18 -27 29 -8
right_child=1 2 -4 -5 -6 -7 8 17 11 10 -12 -13 13 15 -16 -17 22 -19 21 -21 -22 -23 25 24 -26 27 -28 -29 -30 -31
leaf_value=-0.11411723326224209 -0.20554903192646176 0.20618714334838309 -0.17686170000194529 0.12847393734340087 -0.31505895546172913 0.2165456223014138 -0.19599670888727747 -0.10316191300641443 0.27758901757935295 0.16305513034910327 -0.1696772558952403 -0.036147458434386714 -0.17945105482990129 0.019658542644165399 0.021804153811296269 0.14360449155909827 0.20707597018239882 -0.033603264291014824 0.08581788128477065 0.12854589237636174 0.016624189380461767 -0.089728133666405793 0.21904654980766108 -0.23849128464775882 0.10510692983917115 -0.023514428013224273 -0.08748022437403602 0.054359660161255638 -0.26741010837449186 -0.025358420647672398
leaf_weight=20.250736482441425 11.340307593345644 10.970721289515497 8.9302349984645826 37.259327098727226 17.412528276443481 6.1657486259937277 37.816955298185349 79.345834955573082 8.5590478628873807 24.321163289248943 10.691082894802092 282.38033173978329 32.438801690936089 148.83466447889805 28.271622389554977 48.92486846446991 56.804793804883957 337.3373788818717 143.9182250648737 18.269350796937943 67.179811462759972 17.136801064014435 15.907396540045736 10.348928034305574 11.90707692503929 107.57659941166639 7.1970895528793326 202.12647970020771 15.739050112664698 58.836682975292206
leaf_count=76 44 41 30 129 58 21 157 260 29 84 48 937 127 489 94 153 169 1052 453 70 225 51 61 33 39 353 26 661 62 214
internal_value=0 -0.105787 0.0343001 0.00275866 -0.185626 -0.0568845 0.000144957 0.0130606 -0.0201569 -0.0743607 0.0614544 -0.00561415 0.0266745 0.0183656 -0.0857306 0.0503222 0.0452378 -0.00790537 0.0186985 -0.0286429 -0.0482418 0.0671392 0.053073 0.114966 -0.0546645 0.0366769 0.173953 0.0273098 -0.116669 -0.0921228
internal_weight=0 54.8195 19.901 1829.38 34.9186 17.5061 1792.12 1095.31 696.814 147.405 35.0122 549.409 267.029 258.47 60.7104 197.76 432.119 663.187 325.85 164.795 146.526 161.055 411.868 86.2579 22.256 325.61 64.0019 309.703 112.393 96.6536
internal_count=6246 194 71 6052 123 65 5923 3529 2394 565 132 1829 892 863 221 642 1418 2111 1059 555 485 504 1342 267 72 1075 195 1014 433 371
is_linear=0
shrinkage=0.3


Tree=24
num_leaves=17
num_cat=0
split_feature=7 9 4 93 14 74 1 1 11 0 10 11 1 7 7 1
split_gain=2.62601 2.5962 2.83112 2.59131 4.00772 2.42804 9.0761 13.9516 14.9448 7.49151 3.6742 3.34234 4.01576 1.82842 1.81001 1.68118
threshold=2.0448806493827503 -2.8378787848569726 -3.7597750397258909 1.0000000180025095e-35 -0.31265667824508925 1.0000000180025095e-35 0.19339043820100091 -0.31302457731257166 0.31639634420084961 0.22866546781340266 -2.363036009669234 -2.2440662264309013 3.0371055253156785 -0.2239797685168036 2.2403255542954454 1.2451754704214981
decision_type=2 2 2 2 2 2 2 2 2 2 2 2 2 2 2 2
left_child=1 -1 -3 5 -5 10 7 8 -7 -9 -4 13 -13 -12 -2 -8
right_child=14 2 3 4 -6 6 15 9 -10 -11 11 12 -14 -15 -16 -17
leaf_value=0.21770351030278509 0.24075028379806426 0.24346881772454276 0.17858436413186199 0.26144297309735787 -0.032121715694813535 -0.22820235308394013 -0.26776936724131928 0.47600865880408549 0.16475945390613131 0.11139897111309695 -0.26491803438499351 -0.0037746190761418028 0.17384702359398668 -0.055264882428570042 0.029521920384038784 -0.063717387299015701
leaf_weight=5.0423888266086569 6.9941424131393415 4.360599309206008 10.006483256816862 8.6093810498714465 8.1449209898710233 15.265970528125761 6.6059451401233664 10.957893133163454 20.283124059438705 9.4416807144880277 6.4322039037942877 1402.9282880984247 11.549929462373255 8.9574388712644559 7.6384576857089996 8.0771620571613294
leaf_count=18 22 13 36 24 26 50 26 32 69 29 26 5721 47 46 27 34
internal_value=0 0.0027927 0.00208517 0.00139598 0.11873 9.45312e-05 0.0544008 0.109492 -0.00399149 0.307254 -0.00256942 -0.00383716 -0.00232425 -0.142891 0.130486 -0.155521
internal_weight=0 1536.66 1531.62 1527.26 16.7543 1510.51 70.6318 55.9487 35.5491 20.3996 1439.87 1429.87 1414.48 15.3896 14.6326 14.6831
internal_count=6246 6197 6179 6166 50 6116 240 180 119 61 5876 5840 5768 72 49 60
is_linear=0
shrinkage=0.3


Tree=25
num_leaves=31
num_cat=0
split_feature=7 11 164 13 13 3 10 90 4 4 8 14 14 13 6 7 13 3 8 6 7 5 8 13 13 9 11 3 8 14
split_gain=4.58875 5.19453 4.78907 3.43996 4.29287 6.55215 5.17024 7.98621 5.04877 5.89786 5.82041 4.02151 4.0259 3.32268 4.00114 4.98973 2.48916 2.40206 3.05579 7.12403 2.38882 2.30557 2.17427 1.98084 3.99098 1.90558 1.65155 1.45117 1.43263 0.603662
threshold=-2.1444383993980725 -1.5166620870468812 1.0000000180025095e-35 2.3362310100946577 0.65578515607475596 -1.413254424907209 -1.3619339084846371 1.0000000180025095e-35 -0.57483790300556536 -0.28529816330371771 0.16641613774275713 -0.076960454575345935 4.3855699967229436 -0.72600140616522502 -0.95755284986663003 -0.73383604220209631 -0.41759302000708209 -0.56275431597632586 1.0114854030608498 0.1687923981796641 -1.4646300344843486 -0.79325253738198209 -1.8766084597295554 0.42455469621127001 0.57699862530899015 -0.92865822133585685 -0.071552530137294429 -1.0584600007674028 -0.20504287997948156 -0.38572622826061076
decision_type=2 2 2 2 2 2 2 2 2 2 2 2 2 2 2 2 2 2 2 2 2 2 2 2 2 2 2 2 2 2
left_child=26 13 3 4 6 -6 7 16 10 -10 -8 20 -13 29 15 -15 -3 21 19 22 -7 -5 -19 -16 -25 -26 -1 -4 -23 -2
right_child=1 2 27 17 5 11 8 -9 9 -11 -12 12 -14 14 23 -17 -18 18 -20 -21 -22 28 -24 24 25 -27 -28 -29 -30 -31
leaf_value=0.064434530200547263 -0.084669355836749893 -0.23718139414029532 -0.026318394610346827 0.052175514803808748 0.31329816037539182 -0.051339947162872872 0.021514662518575325 0.19544929151355195 -0.079403279346149644 -0.0034865305885436568 0.200392696851903 -0.023773703000017618 0.2260262012536482 -0.095200769144838673 -0.21816939097072133 0.30137976301986197 -0.064690344032827404 0.11991390768403754 -0.24158331594061067 0.31384030857180945 0.066940924267564372 -0.26427410444855448 -0.068777577003052107 0.26483874661200596 -0.19215719575425486 0.096648329798376093 0.2640114408891519 -0.24683318116017611 -0.09156992766349234 -0.22627288125242537
leaf_weight=7.6376483887434006 3.3080212585628059 20.470475900918245 3.7851539850234976 4.318336974829438 7.3658700212836257 16.934522464871407 253.57978133112192 6.2993397861719123 108.59533404558897 606.35171666741371 17.50115379691124 127.81016167998314 6.0829487442970267 5.7138388603925705 9.6134713217616099 5.7074947953224164 11.910213403403757 6.3280235379934302 5.4969594925642005 5.5895527750253668 166.04528654366732 10.359518922865394 41.804185695946217 3.0109536200761786 8.6656955108046496 2.6958290636539468 7.2971671223640424 9.2482078894972783 7.4184698984026882 14.975268360227345
leaf_count=24 38 126 20 25 36 54 897 19 379 2665 62 435 20 30 103 22 73 27 34 16 590 44 163 19 69 16 21 55 36 128
internal_value=0 -0.00517035 -0.0017619 -0.000112256 0.0035 0.0335861 -0.00601985 -0.113611 -0.00179924 -0.0150177 0.0330631 0.027084 -0.0124249 -0.0967954 -0.0431667 0.102979 -0.173736 -0.0600365 -0.0285403 -0.00674113 0.0559942 -0.144447 -0.04397 -0.112757 -0.0422482 -0.12363 0.161948 -0.182791 -0.192207 -0.200652
internal_weight=0 1496.99 1443.3 1430.26 1348.95 324.239 1024.71 38.68 986.028 714.947 271.081 316.873 133.893 53.6906 35.4073 11.4213 32.3807 81.315 59.2187 53.7218 182.98 22.0963 48.1322 23.9859 14.3725 11.3615 14.9348 13.0334 17.778 18.2833
internal_count=6246 6201 5776 5701 5356 1135 4221 218 4003 3044 959 1099 455 425 259 52 199 345 240 206 644 105 190 207 104 85 45 75 80 166
is_linear=0
shrinkage=0.3


Tree=26
num_leaves=24
num_cat=0
split_feature=111 11 8 24 7 173 7 137 13 10 4 1 14 2 11 10 1 2 2 14 8 4 10
split_gain=4.88869 4.99148 8.09468 4.4075 4.87917 4.22624 5.91589 4.20691 4.56893 4.41974 5.72525 4.85398 4.15981 4.44021 3.96678 6.46535 3.44283 3.87348 3.34684 1.57916 0.917597 0.893337 0.131467
threshold=1.0000000180025095e-35 -0.26552696730636638 1.0000000180025095e-35 1.0000000180025095e-35 2.0448806493827503 1.0000000180025095e-35 0.62578068762535122 1.0000000180025095e-35 2.3291727998801757 -1.3619339084846371 -0.57483790300556536 1.400995475194905 -0.093495766187808901 1.374993768313757 -0.15884102686337739 -0.12163042029133107 -1.2089896047596616 -0.68574862072471932 -0.64265806646438206 0.0028059222171459139 1.0000000180025095e-35 -0.57483790300556536 0.88833099152321904
decision_type=2 2 2 2 2 2 2 2 2 2 2 2 2 2 2 2 2 2 2 2 2 2 2
left_child=3 2 -2 4 5 7 -7 8 9 11 -11 -1 13 20 15 -5 -10 -18 -6 -16 21 -3 -22
right_child=1 12 -4 14 18 6 -8 -9 16 10 -12 -13 -14 -15 19 -17 17 -19 -20 -21 22 -23 -24
leaf_value=0.097336249048436213 -0.19899103087682671 -0.27119476217426297 0.27060900763404105 0.14071870518861024 -0.024166834806967036 -0.2627496405220382 0.056567100668984835 -0.21771797215707614 -0.13882227951153187 -0.036801328435049095 0.006174125387648605 -0.016982476786151359 0.033845484437232516 0.055457719297285872 0.27342513085330811 -0.26487570211290262 -8.8188969290140423e-05 0.12499959785385564 -0.32450417053294789 0.10458738854477129 -0.34594749512958045 -0.099589487804209689 -0.28461418179741577
leaf_weight=82.959159627556801 5.8872966617345792 6.1130454540252677 7.5276419520378113 9.6250481158494932 6.4168494492769241 12.626896843314173 8.9039730727672559 7.7342670261859885 6.948499731719493 373.42477164417505 1103.2903696149588 55.987188711762428 8.6163323968648928 4.9193938672542563 10.710882589221002 5.5922233313322058 34.879376888275146 61.678392827510834 6.9627157747745496 9.3276191055774671 5.8323229253292066 4.9337131977081325 6.8271350264549255
leaf_count=271 19 27 26 39 21 38 28 22 33 1305 3647 196 33 26 39 18 128 214 20 33 17 20 26
internal_value=0 -0.0923858 0.0645198 0.00211482 1.31198e-05 0.00139417 -0.130698 0.00304109 0.00403425 0.000119739 -0.00469331 0.0512725 -0.148905 -0.203913 0.107141 -0.00833394 0.065137 0.0798144 -0.180462 0.194834 -0.257736 -0.194552 -0.312871
internal_weight=0 50.6569 13.4149 1797.07 1761.81 1748.43 21.5309 1726.9 1719.17 1615.66 1476.72 138.946 37.2419 28.6256 35.2558 15.2173 103.506 96.5578 13.3796 20.0385 23.7062 11.0468 12.6595
internal_count=6246 194 45 6052 5923 5882 66 5816 5794 5419 4952 467 149 116 129 57 375 342 41 72 90 47 43
is_linear=0
shrinkage=0.3


Tree=27
num_leaves=25
num_cat=0
split_feature=1 1 5 5 7 6 2 12 101 7 10 2 10 9 9 9 179 7 28 0 2 13 13 1
split_gain=2.47302 4.81062 2.97858 3.97231 7.94194 4.74768 3.8143 3.49316 3.95805 3.39091 3.16966 8.37238 4.63165 6.82502 4.22751 4.30015 4.11961 6.96725 3.3911 2.55515 1.86093 1.65114 1.52241 1.06212
threshold=3.3097905336691404 3.0371055253156785 -2.9910991947445233 -1.5022353300795761 -0.44491748711376328 -0.37621336700402641 -1.5399554904737556 0.64573538784759266 1.0000000180025095e-35 1.3650722844690262 -1.0075614832865498 -1.0989109939267754 -1.1227325214759281 -1.0128885403147299 -1.8645506544344428 -1.6212186218288107 1.0000000180025095e-35 -0.054027677288372676 1.0000000180025095e-35 -0.29734673275072759 -0.22822832401937501 -1.0782647323469126 0.49468844761887093 1.0504004644547393
decision_type=2 2 2 2 2 2 2 2 2 2 2 2 2 2 2 2 2 2 2 2 2 2 2 2
left_child=1 2 23 4 5 6 -4 8 9 -6 11 12 13 -5 -12 -16 17 -13 -17 -9 -10 -18 -8 -1
